/*
 * Copyright (c) 2025 EdgeImpulse Inc.
 *
 * Generated by Edge Impulse and licensed under the applicable Edge Impulse
 * Terms of Service. Community and Professional Terms of Service
 * (https://edgeimpulse.com/legal/terms-of-service) or Enterprise Terms of
 * Service (https://edgeimpulse.com/legal/enterprise-terms-of-service),
 * according to your product plan subscription (the “License”).
 *
 * This software, documentation and other associated files (collectively referred
 * to as the “Software”) is a single SDK variation generated by the Edge Impulse
 * platform and requires an active paid Edge Impulse subscription to use this
 * Software for any purpose.
 *
 * You may NOT use this Software unless you have an active Edge Impulse subscription
 * that meets the eligibility requirements for the applicable License, subject to
 * your full and continued compliance with the terms and conditions of the License,
 * including without limitation any usage restrictions under the applicable License.
 *
 * If you do not have an active Edge Impulse product plan subscription, or if use
 * of this Software exceeds the usage limitations of your Edge Impulse product plan
 * subscription, you are not permitted to use this Software and must immediately
 * delete and erase all copies of this Software within your control or possession.
 * Edge Impulse reserves all rights and remedies available to enforce its rights.
 *
 * Unless required by applicable law or agreed to in writing, the Software is
 * distributed on an "AS IS" BASIS, WITHOUT WARRANTIES OR CONDITIONS OF ANY KIND,
 * either express or implied. See the License for the specific language governing
 * permissions, disclaimers and limitations under the License.
 */
// Generated on: 31.12.2025 06:33:13

#include <stdio.h>
#include <stdlib.h>
#include "edge-impulse-sdk/tensorflow/lite/c/builtin_op_data.h"
#include "edge-impulse-sdk/tensorflow/lite/c/common.h"
#include "edge-impulse-sdk/tensorflow/lite/micro/micro_mutable_op_resolver.h"
#include "edge-impulse-sdk/porting/ei_classifier_porting.h"

#if EI_CLASSIFIER_PRINT_STATE
#if defined(__cplusplus) && EI_C_LINKAGE == 1
extern "C" {
    extern void ei_printf(const char *format, ...);
}
#else
extern void ei_printf(const char *format, ...);
#endif
#endif

#define STRINGIZE(x) #x
#define STRINGIZE_VALUE_OF(x) STRINGIZE(x)

#if defined (__GNUC__)  /* GNU compiler */
#define ALIGN(X) __attribute__((aligned(X)))
#define DEFINE_SECTION(x) __attribute__((section(x)))
#elif defined (_MSC_VER)
#define ALIGN(X) __declspec(align(X))
#elif defined (__TASKING__) /* TASKING Compiler */
#define ALIGN(X) __align(X)
#define DEFINE_SECTION(x) __attribute__((section(x)))
#elif defined (__ARMCC_VERSION) /* Arm Compiler */
#define ALIGN(X) __ALIGNED(x)
#define DEFINE_SECTION(x) __attribute__((section(x)))
#elif defined (__ICCARM__) /* IAR Compiler */
#define ALIGN(x) __attribute__((aligned(x)))
#define DEFINE_SECTION(x) __attribute__((section(x)))
#elif defined (__clang__) /* LLVM/Clang Compiler */
#define ALIGN(X) __ALIGNED(x)
#define DEFINE_SECTION(x) __attribute__((section(x)))
#endif

#if defined(EI_MODEL_SECTION) && (defined(__GNUC__) || defined(__clang__))
#define MODEL_SECTION(X) __attribute__((section(STRINGIZE_VALUE_OF(X))))
#else
#define MODEL_SECTION(X)
#endif

#ifndef EI_MAX_SCRATCH_BUFFER_COUNT
#ifndef CONFIG_IDF_TARGET_ESP32S3
#define EI_MAX_SCRATCH_BUFFER_COUNT 14
#else
#define EI_MAX_SCRATCH_BUFFER_COUNT 28
#endif // CONFIG_IDF_TARGET_ESP32S3
#endif // EI_MAX_SCRATCH_BUFFER_COUNT

#ifndef EI_MAX_OVERFLOW_BUFFER_COUNT
#define EI_MAX_OVERFLOW_BUFFER_COUNT 10
#endif // EI_MAX_OVERFLOW_BUFFER_COUNT

using namespace tflite;
using namespace tflite::ops;
using namespace tflite::ops::micro;

namespace {

#if defined(EI_CLASSIFIER_ALLOCATION_STATIC_HIMAX) || defined(EI_CLASSIFIER_ALLOCATION_STATIC_HIMAX_GNU)
constexpr int kTensorArenaSize = 238544;
#else
constexpr int kTensorArenaSize = 237520;
#endif

#if defined(EI_CLASSIFIER_ALLOCATION_STATIC)
#if defined (EI_TENSOR_ARENA_LOCATION)
uint8_t tensor_arena[kTensorArenaSize] ALIGN(16) DEFINE_SECTION(STRINGIZE_VALUE_OF(EI_TENSOR_ARENA_LOCATION));
#else
uint8_t tensor_arena[kTensorArenaSize] ALIGN(16);
#endif
#elif defined(EI_CLASSIFIER_ALLOCATION_STATIC_HIMAX)
#pragma Bss(".tensor_arena")
uint8_t tensor_arena[kTensorArenaSize] ALIGN(16);
#pragma Bss()
#elif defined(EI_CLASSIFIER_ALLOCATION_STATIC_HIMAX_GNU)
uint8_t tensor_arena[kTensorArenaSize] ALIGN(16) __attribute__((section(".tensor_arena")));
#else
#define EI_CLASSIFIER_ALLOCATION_HEAP 1
uint8_t* tensor_arena = NULL;
#endif

static uint8_t* tensor_boundary;
static uint8_t* current_location;

template <int SZ, class T> struct TfArray {
  int sz; T elem[SZ];
};

enum used_operators_e {
  OP_CONV_2D, OP_DEPTHWISE_CONV_2D, OP_ADD, OP_PAD, OP_SOFTMAX,  OP_LAST
};

struct TensorInfo_t { // subset of TfLiteTensor used for initialization from constant memory
  TfLiteAllocationType allocation_type;
  TfLiteType type;
  void* data;
  TfLiteIntArray* dims;
  size_t bytes;
  TfLiteQuantization quantization;
};

typedef struct {
  TfLiteTensor tensor;
  int16_t index;
} TfLiteTensorWithIndex;

typedef struct {
  TfLiteEvalTensor tensor;
  int16_t index;
} TfLiteEvalTensorWithIndex;

TfLiteContext ctx{};
static const int MAX_TFL_TENSOR_COUNT = 4;
static TfLiteTensorWithIndex tflTensors[MAX_TFL_TENSOR_COUNT];
static const int MAX_TFL_EVAL_COUNT = 4;
static TfLiteEvalTensorWithIndex tflEvalTensors[MAX_TFL_EVAL_COUNT];
TfLiteRegistration registrations[OP_LAST];

namespace g0 {
const TfArray<4, int> tensor_dimension0 = { 4, { 1,96,96,1 } };
const TfArray<1, float> quant0_scale = { 1, { 0.0039215688593685627, } };
const TfArray<1, int> quant0_zero = { 1, { -128 } };
const TfLiteAffineQuantization quant0 = { (TfLiteFloatArray*)&quant0_scale, (TfLiteIntArray*)&quant0_zero, 0 };
const MODEL_SECTION(EI_MODEL_SECTION) ALIGN(16) int32_t tensor_data1[4*2] = { 
  0, 0, 
  0, 1, 
  0, 1, 
  0, 0, 
};
const TfArray<2, int> tensor_dimension1 = { 2, { 4,2 } };
const MODEL_SECTION(EI_MODEL_SECTION) ALIGN(8) int32_t tensor_data2[3] = { 21956, -35939, -33165, };
const TfArray<1, int> tensor_dimension2 = { 1, { 3 } };
const TfArray<3, float> quant2_scale = { 3, { 0.00023286213399842381, 0.00015541340690106153, 0.00017076962103601545, } };
const TfArray<3, int> quant2_zero = { 3, { 0,0,0 } };
const TfLiteAffineQuantization quant2 = { (TfLiteFloatArray*)&quant2_scale, (TfLiteIntArray*)&quant2_zero, 0 };
const MODEL_SECTION(EI_MODEL_SECTION) ALIGN(16) int8_t tensor_data3[3*1*1*32] = { 
  /* [0][0][][] */ 75,36,94,-60,-18,23,3,24,0,11,21,-30,34,-52,12,-4,-20,37,127,77,31,-14,43,-62,-73,105,-27,3,89,56,-48,29, 
  /* [1][0][][] */ -31,-23,-63,32,2,120,-16,2,116,-35,7,-62,-105,103,46,-35,91,-36,-38,-85,-108,33,70,76,34,-17,-5,-7,-120,-127,16,-28, 
  /* [2][0][][] */ -51,70,-63,74,74,-30,-24,99,69,42,107,4,-127,-66,81,101,-63,-38,1,-92,61,93,-53,-76,84,-56,-14,-94,-31,-95,81,-29, 
};
const TfArray<4, int> tensor_dimension3 = { 4, { 3,1,1,32 } };
const TfArray<3, float> quant3_scale = { 3, { 0.0054962700232863426, 0.0036682395730167627, 0.0040306937880814075, } };
const TfLiteAffineQuantization quant3 = { (TfLiteFloatArray*)&quant3_scale, (TfLiteIntArray*)&g0::quant2_zero, 0 };
const MODEL_SECTION(EI_MODEL_SECTION) ALIGN(16) int32_t tensor_data4[32] = { 71, 410, -26, 299, 78, 449, -104, 385, 306, 111, 297, -487, 1072, 209, 442, 321, 192, -563, 2318, -170, 113, 295, -110, 102, 322, 1505, -395, -363, 2044, 1803, 503, 161, };
const TfArray<1, int> tensor_dimension4 = { 1, { 32 } };
const TfArray<32, float> quant4_scale = { 32, { 0.000107853818917647, 5.2995044825365767e-05, 6.9109541072975844e-05, 5.9353918913984671e-05, 5.1941729907412082e-05, 5.5866519687697291e-05, 5.6544293329352513e-05, 5.6968932767631486e-05, 7.0255933678708971e-05, 5.40642358828336e-05, 8.1555444921832532e-05, 5.1139842980774119e-05, 9.1073008661624044e-05, 6.1488441133406013e-05, 5.9300207794876769e-05, 5.2924668125342578e-05, 5.7220986491302028e-05, 5.4906671721255407e-05, 8.2864549767691642e-05, 6.1789629398845136e-05, 7.8915567428339273e-05, 6.5164997067768127e-05, 5.476619116961956e-05, 6.5678235841915011e-05, 5.9811904066009447e-05, 6.5236767113674432e-05, 5.4784108215244487e-05, 5.2846666221739724e-05, 7.7494391007348895e-05, 7.1478323661722243e-05, 6.6089902247767895e-05, 6.3847684941720217e-05, } };
const TfArray<32, int> quant4_zero = { 32, { 0,0,0,0,0,0,0,0,0,0,0,0,0,0,0,0,0,0,0,0,0,0,0,0,0,0,0,0,0,0,0,0 } };
const TfLiteAffineQuantization quant4 = { (TfLiteFloatArray*)&quant4_scale, (TfLiteIntArray*)&quant4_zero, 0 };
const MODEL_SECTION(EI_MODEL_SECTION) ALIGN(16) int8_t tensor_data5[32*1*1*48] = { 
  /* [0][0][][] */ 44,2,52,4,49,-3,-46,-13,28,-28,-47,48,28,4,-18,26,-12,46,11,-28,-38,-50,6,55,-54,3,107,-26,53,-2,0,-40,107,-34,-46,31,-54,-41,-48,12,37,-42,-49,127,38,-46,67,53, 
  /* [1][0][][] */ -47,7,-72,-4,-59,88,44,29,88,-109,-100,106,75,-27,28,65,127,-28,46,111,-46,-2,48,15,29,10,-47,113,13,9,106,-71,61,101,-5,43,53,70,-1,-70,-62,-17,-11,-92,-25,51,-31,-54, 
  /* [2][0][][] */ 58,53,-49,68,-17,-53,61,71,-90,55,-35,98,81,-19,63,-94,-30,-17,31,41,-82,-12,89,17,-35,61,127,-3,-62,52,57,74,-14,-25,-65,-89,-66,70,78,-32,-95,-58,6,27,-74,83,-38,-42, 
  /* [3][0][][] */ 50,-37,48,-13,-47,62,-85,45,71,41,81,10,98,105,83,22,87,93,-39,22,122,-72,-61,-102,10,-82,-127,120,59,-68,98,19,-93,-18,-15,0,-74,-5,53,63,-5,-75,-76,-34,88,43,-19,-102, 
  /* [4][0][][] */ 32,61,-1,54,-33,-12,47,32,84,107,13,53,36,-26,-5,-73,-27,0,-59,14,124,-96,80,19,1,-2,6,-43,-39,56,-55,-51,21,125,12,-92,-53,7,-105,60,-41,-76,-65,-118,58,127,56,31, 
  /* [5][0][][] */ 54,-90,91,91,63,-98,45,56,127,-85,16,-54,28,115,52,51,33,64,-56,110,48,61,20,-17,-70,-39,-56,-69,63,51,36,-80,-68,19,-63,26,-98,-19,58,42,-68,-37,49,60,-15,34,58,-61, 
  /* [6][0][][] */ 26,-32,110,74,-76,-41,-4,67,-14,-80,4,-79,94,53,111,-114,127,10,2,103,-71,-113,106,63,-36,-66,40,-52,-25,-102,43,-71,-40,-113,-28,-102,-6,37,-106,77,84,66,22,3,-109,104,-87,-27, 
  /* [7][0][][] */ 110,22,-28,-35,-66,122,-7,13,127,17,-79,17,62,-73,54,79,52,24,10,111,64,40,0,81,-50,105,-28,67,-64,118,-6,41,-26,32,66,109,-95,95,5,-17,101,-83,93,36,64,12,115,-121, 
  /* [8][0][][] */ -17,4,-23,-62,61,33,-42,-13,26,51,52,81,9,-19,-52,-44,-68,76,-38,24,38,-12,63,90,-67,88,-6,76,-39,34,-53,102,38,-12,38,8,99,16,-3,71,76,88,-76,-127,9,-10,3,66, 
  /* [9][0][][] */ 17,1,120,44,78,-109,-44,-127,46,37,4,52,-14,-84,-99,-26,23,-3,-96,-78,-1,101,-109,-118,105,-4,9,36,-8,-66,-89,91,79,-4,27,-7,-72,26,-26,-43,55,-85,62,-81,94,23,-104,50, 
  /* [10][0][][] */ -45,29,67,-41,-8,79,81,29,37,31,26,-42,73,63,-16,14,-21,61,-56,-39,-4,24,42,-47,34,42,-127,-66,-25,65,-52,-49,16,73,81,58,-23,13,-12,30,-16,72,-66,-49,-53,-28,10,-48, 
  /* [11][0][][] */ 117,9,-27,98,113,40,44,24,106,88,-97,109,-21,-100,18,-83,-20,-118,57,33,20,68,15,-127,-123,-115,4,61,70,-21,15,-32,-54,-89,45,36,-79,66,-45,-76,-42,102,-92,5,-58,-74,-108,-102, 
  /* [12][0][][] */ 67,74,-18,22,57,17,-25,36,-72,23,-16,32,0,13,36,-37,-10,17,-8,-37,23,20,45,71,-50,-23,122,-61,61,4,-14,78,7,-32,6,33,22,-40,6,24,79,30,-46,28,-17,-34,-33,127, 
  /* [13][0][][] */ 60,-57,104,96,108,109,86,52,81,-68,17,-15,76,80,72,-26,-127,-63,-58,40,75,-15,103,-31,-32,56,-32,28,-63,-63,91,48,7,108,-15,31,-62,-18,29,81,-43,85,-45,-25,-33,29,18,-41, 
  /* [14][0][][] */ -56,-112,94,70,86,-26,1,-127,-53,-24,82,80,-15,-64,-68,-66,-90,-57,29,28,-25,40,4,62,-83,-51,-89,45,-92,-89,-55,49,43,-10,-32,19,98,123,48,-91,10,-99,44,40,81,-108,80,-94, 
  /* [15][0][][] */ 28,-53,-24,76,83,-82,72,-79,71,-3,-60,11,123,5,-85,-110,105,21,-85,17,54,26,82,101,81,70,16,105,30,65,74,-105,-6,4,-61,11,-65,126,127,-67,24,96,-35,-25,40,-65,-42,-88, 
  /* [16][0][][] */ -99,-1,111,-45,68,115,-37,34,62,72,-96,81,-18,-27,-36,-40,81,76,74,79,122,85,-37,63,-6,73,-99,71,-80,31,57,30,-127,92,60,53,-20,58,-41,-46,33,-25,69,50,64,100,118,-24, 
  /* [17][0][][] */ 27,-113,17,69,-56,-125,-79,-103,28,-98,70,39,84,49,-127,37,37,43,90,103,-106,-25,4,-61,10,52,-59,12,92,-68,-45,64,-14,-36,20,-7,-60,86,-102,-43,-109,-48,-28,-10,-8,0,74,-115, 
  /* [18][0][][] */ 29,111,102,-7,-6,-55,-74,33,-33,33,-90,-12,5,28,57,-30,47,33,79,4,81,12,95,-18,-13,-76,91,45,17,15,7,54,127,-8,-22,-20,2,32,11,20,-26,19,17,104,-89,15,-4,81, 
  /* [19][0][][] */ 28,39,65,32,50,-73,82,80,79,-56,24,-5,-81,28,-49,50,127,-86,99,50,-20,70,-48,10,71,-69,72,-61,-81,-102,-56,40,115,-74,33,-3,9,-62,-50,-90,38,-102,-74,25,-76,26,104,-57, 
  /* [20][0][][] */ 16,48,52,68,-62,73,12,46,9,5,-60,5,9,60,30,-51,-25,-17,-37,-16,17,-28,-47,-44,49,-52,-23,31,16,8,-30,80,127,31,1,45,31,-21,-8,-81,-60,-21,-56,-60,-19,-41,-54,79, 
  /* [21][0][][] */ 66,31,69,-80,89,-54,73,15,14,-41,-45,33,11,41,-33,-65,-127,-29,31,-7,100,-36,59,-66,67,-61,-80,76,23,19,5,-12,-36,27,-81,-84,97,92,-84,-17,5,8,32,-52,-66,-61,-49,49, 
  /* [22][0][][] */ 26,-54,-74,-87,87,-47,107,30,-98,87,-77,-102,113,-115,-117,-79,26,80,-112,-85,85,-75,29,4,97,-9,-121,97,-60,-80,-67,-127,38,71,16,11,1,-16,-59,-120,0,-32,-1,91,54,-118,88,-16, 
  /* [23][0][][] */ 14,-74,14,54,104,-88,13,-92,60,-45,77,71,11,-75,25,-21,52,-31,-85,97,88,-62,81,-18,8,2,31,28,67,52,71,-18,-60,49,18,23,88,0,-90,18,-78,16,4,-127,-53,-75,108,4, 
  /* [24][0][][] */ -94,-82,-80,-56,-55,-85,-45,-74,84,127,96,50,116,74,-20,-88,-82,41,36,-34,103,-65,-55,-21,78,-4,11,75,114,70,21,-44,-48,24,45,37,-37,-61,70,1,-49,-63,105,-45,39,-19,62,37, 
  /* [25][0][][] */ -11,8,-29,22,100,-71,-96,57,12,-109,-58,37,77,-2,-69,35,-53,72,44,-63,58,103,46,14,-15,-42,-24,5,61,-91,28,119,127,-90,62,71,106,-44,-14,-22,-63,125,-66,74,59,25,27,75, 
  /* [26][0][][] */ 42,-127,-27,-17,-101,-11,-15,-23,-110,-123,101,77,-83,-52,6,-19,95,17,-87,-70,9,65,91,11,48,59,-8,42,9,-2,-97,-7,-50,-64,-107,-107,-71,80,-55,105,-102,101,51,14,-76,66,-46,87, 
  /* [27][0][][] */ 8,29,-69,-112,-126,-80,-78,-24,36,94,32,-116,-33,51,78,-25,70,-24,58,-91,-104,5,-35,-26,-114,43,-68,-10,59,21,-41,-16,127,62,-100,-95,-98,-72,-122,83,-104,17,22,16,94,18,61,101, 
  /* [28][0][][] */ 123,37,82,64,-68,-27,-70,-9,-53,-76,18,84,-28,-39,28,80,98,127,-11,80,2,59,-17,-19,-98,59,-9,-58,-40,-49,20,19,-26,27,98,91,46,-70,0,25,86,51,-16,91,-85,23,11,90, 
  /* [29][0][][] */ 93,112,70,15,-53,22,-96,35,41,-37,-90,-35,109,-76,-22,-14,-43,127,45,-19,-41,21,109,51,-63,6,28,-45,-69,-20,80,27,89,38,-2,-17,26,83,18,62,45,115,-5,123,-19,87,-66,59, 
  /* [30][0][][] */ 19,-78,-37,39,-67,37,-37,13,111,0,15,-18,-67,29,63,20,5,43,89,-68,51,-69,-86,23,-69,37,-127,112,6,-69,-60,20,-123,-44,-80,-31,26,0,12,34,88,-53,3,53,102,-18,101,37, 
  /* [31][0][][] */ 119,-59,35,89,46,80,-52,-66,-31,-15,-74,-56,100,-99,-37,92,55,-41,49,50,62,38,-17,95,44,-92,127,33,-60,-44,47,100,97,21,-53,-1,92,-27,-53,-94,54,-53,-22,85,9,1,-3,66, 
};
const TfArray<4, int> tensor_dimension5 = { 4, { 32,1,1,48 } };
const TfArray<32, float> quant5_scale = { 32, { 0.0045837871730327606, 0.0022522893268615007, 0.0029371553100645542, 0.0025225414428859949, 0.0022075234446674585, 0.0023743270430713892, 0.0024031323846429586, 0.0024211795534938574, 0.0029858772177249193, 0.0022977299522608519, 0.0034661062527447939, 0.0021734433248639107, 0.0038706029299646616, 0.0026132587809115648, 0.0025202587712556124, 0.0022492983844131231, 0.0024318918585777283, 0.0023335334844887257, 0.0035217432305216789, 0.0026260591112077236, 0.0033539114519953728, 0.0027695123571902514, 0.0023275630082935095, 0.0027913248632103205, 0.0025420058518648148, 0.0027725626714527607, 0.0023283245973289013, 0.0022459833417087793, 0.0032935114577412605, 0.0030378287192434072, 0.0028088209219276905, 0.0027135265991091728, } };
const TfLiteAffineQuantization quant5 = { (TfLiteFloatArray*)&quant5_scale, (TfLiteIntArray*)&g0::quant4_zero, 0 };
const MODEL_SECTION(EI_MODEL_SECTION) ALIGN(16) int32_t tensor_data6[48] = { 1414, -846, 2927, 1849, 1543, 123, 1585, 3411, -1796, -1355, -882, 5006, 2684, 2467, 5189, -4026, -2744, 8679, 2654, 2957, 3370, 8537, 16647, 781, -1402, 1053, 580, -633, 2194, 1647, 3253, 5149, -431, 435, 8988, 2173, 5156, 1646, 919, -1145, 2419, -1295, 5753, 260, 224, 1900, -1307, 4398, };
const TfArray<1, int> tensor_dimension6 = { 1, { 48 } };
const TfArray<48, float> quant6_scale = { 48, { 0.00031922681955620646, 0.00037175926263444126, 0.00026535207871347666, 0.0002867955481633544, 0.00033522993908263743, 0.00032545963767915964, 0.0001502474769949913, 0.00022565459948964417, 0.00023186544422060251, 0.0002718403993640095, 0.00034455081913620234, 0.00015386129962280393, 0.00024952471721917391, 0.0002416868373984471, 0.00016711099306121469, 0.0001450114359613508, 0.00018759406520985067, 0.00011657710274448618, 0.00022346856712829322, 0.00026229314971715212, 0.00023919108207337558, 0.0001253913069376722, 6.0648806538665667e-05, 0.00031922128982841969, 0.00030099460855126381, 0.0002757058828137815, 0.00024052572553046048, 0.00030867895111441612, 0.00017277665028814226, 0.00024748605210334063, 0.00019771930237766355, 0.00017413707973901182, 0.00017111228953581303, 0.00025088590336963534, 0.00010312047379557043, 0.00028656597714871168, 0.00017518227105028927, 0.00034860815503634512, 0.00039896226371638477, 0.00029741378966718912, 0.0002587106719147414, 0.00035016736364923418, 0.00014710288087371737, 0.00039137894054874778, 0.00037959913606755435, 0.0002757819602265954, 0.00031477396260015666, 0.0002004104753723368, } };
const TfArray<48, int> quant6_zero = { 48, { 0,0,0,0,0,0,0,0,0,0,0,0,0,0,0,0,0,0,0,0,0,0,0,0,0,0,0,0,0,0,0,0,0,0,0,0,0,0,0,0,0,0,0,0,0,0,0,0 } };
const TfLiteAffineQuantization quant6 = { (TfLiteFloatArray*)&quant6_scale, (TfLiteIntArray*)&quant6_zero, 0 };
const MODEL_SECTION(EI_MODEL_SECTION) ALIGN(16) int8_t tensor_data7[48*1*1*8] = { 
  /* [0][0][][] */ -5,29,127,-6,-17,53,1,-85, 
  /* [1][0][][] */ 70,-64,57,-71,-8,-76,127,24, 
  /* [2][0][][] */ 68,64,65,-63,-71,20,127,-19, 
  /* [3][0][][] */ -4,20,9,-29,22,-70,127,7, 
  /* [4][0][][] */ 127,-36,-55,-27,-96,-59,-18,68, 
  /* [5][0][][] */ 38,83,127,4,26,-46,31,-44, 
  /* [6][0][][] */ 127,108,-11,124,-79,36,8,95, 
  /* [7][0][][] */ -30,-4,-1,38,32,-127,-124,-31, 
  /* [8][0][][] */ 127,81,-51,93,-64,29,-126,-47, 
  /* [9][0][][] */ 127,-22,-33,44,7,-38,14,-86, 
  /* [10][0][][] */ 89,29,-9,18,-37,127,38,17, 
  /* [11][0][][] */ 127,-25,-11,-118,92,-55,-60,75, 
  /* [12][0][][] */ -50,112,68,-31,6,71,-81,127, 
  /* [13][0][][] */ 127,8,-84,20,15,-70,25,-74, 
  /* [14][0][][] */ 117,30,1,-23,-127,22,-82,-10, 
  /* [15][0][][] */ -14,4,-106,-37,-116,-72,127,107, 
  /* [16][0][][] */ 2,-58,127,-9,127,-48,-73,-35, 
  /* [17][0][][] */ 25,-11,75,-5,127,-56,-62,-4, 
  /* [18][0][][] */ 89,-47,127,36,-21,29,-43,-5, 
  /* [19][0][][] */ 84,51,50,-60,-45,-127,21,-40, 
  /* [20][0][][] */ 56,-29,45,127,3,-55,-72,70, 
  /* [21][0][][] */ 68,-27,-60,-127,52,-57,12,92, 
  /* [22][0][][] */ -33,-127,-73,-49,50,-31,127,-69, 
  /* [23][0][][] */ -12,25,26,-40,-116,-127,10,-24, 
  /* [24][0][][] */ 127,4,70,48,-5,-29,-110,76, 
  /* [25][0][][] */ 127,73,-26,-59,-24,-17,-25,115, 
  /* [26][0][][] */ -46,-1,31,-117,127,8,-67,-81, 
  /* [27][0][][] */ 102,127,-8,-44,4,64,26,4, 
  /* [28][0][][] */ 23,127,1,1,13,-66,-21,118, 
  /* [29][0][][] */ 121,28,88,115,43,-27,-127,47, 
  /* [30][0][][] */ 127,-118,-77,101,52,0,-76,96, 
  /* [31][0][][] */ 94,-85,27,51,-89,-108,-127,64, 
  /* [32][0][][] */ -108,-67,49,-127,100,-13,-40,-125, 
  /* [33][0][][] */ 44,13,22,43,27,-69,127,46, 
  /* [34][0][][] */ -52,94,93,-67,127,-99,-67,112, 
  /* [35][0][][] */ -54,27,10,127,0,115,47,-19, 
  /* [36][0][][] */ 91,33,-38,-127,40,-6,35,48, 
  /* [37][0][][] */ 36,40,-9,8,-65,127,47,34, 
  /* [38][0][][] */ -23,-66,22,110,12,64,-4,127, 
  /* [39][0][][] */ 28,5,-127,48,-10,-40,-26,64, 
  /* [40][0][][] */ 39,20,-103,9,-50,55,-45,127, 
  /* [41][0][][] */ 24,0,14,-46,-110,-127,-11,-3, 
  /* [42][0][][] */ -77,68,-95,118,-20,94,-30,-127, 
  /* [43][0][][] */ 4,25,-54,-127,-53,-4,-5,-76, 
  /* [44][0][][] */ 70,38,19,83,19,127,-51,44, 
  /* [45][0][][] */ 0,73,-22,15,127,-37,-75,-11, 
  /* [46][0][][] */ 80,-61,-5,127,57,19,-48,76, 
  /* [47][0][][] */ -22,-82,34,-7,127,4,81,39, 
};
const TfArray<4, int> tensor_dimension7 = { 4, { 48,1,1,8 } };
const TfArray<48, float> quant7_scale = { 48, { 0.0033165581990033388, 0.0038623360451310873, 0.0027568347286432981, 0.0029796184971928596, 0.0034828200004994869, 0.003381313057616353, 0.0015609731199219823, 0.0023444038815796375, 0.002408930566161871, 0.0028242440894246101, 0.0035796579904854298, 0.0015985183417797089, 0.0025923987850546837, 0.0025109683629125357, 0.0017361741047352552, 0.0015065741026774049, 0.0019489797996357083, 0.001211159978993237, 0.0023216924164444208, 0.0027250545099377632, 0.0024850391782820225, 0.0013027337845414877, 0.0006301014800556004, 0.0033165006898343563, 0.0031271374318748713, 0.0028644041158258915, 0.002498905174434185, 0.0032069727312773466, 0.0017950366018339992, 0.0025712184142321348, 0.002054174430668354, 0.0018091704696416855, 0.0017777449684217572, 0.0026065406855195761, 0.0010713543742895126, 0.0029772333800792694, 0.0018200293416157365, 0.0036218110471963882, 0.0041449572890996933, 0.003089935053139925, 0.0026878349017351866, 0.0036380102392286062, 0.0015283029060810804, 0.0040661715902388096, 0.0039437869563698769, 0.0028651943430304527, 0.0032702959142625332, 0.002082133898511529, } };
const TfLiteAffineQuantization quant7 = { (TfLiteFloatArray*)&quant7_scale, (TfLiteIntArray*)&g0::quant6_zero, 0 };
const MODEL_SECTION(EI_MODEL_SECTION) ALIGN(16) int32_t tensor_data8[8] = { -9522, -1690, -2843, -10023, 1364, -712, 10715, 13596, };
const TfArray<1, int> tensor_dimension8 = { 1, { 8 } };
const TfArray<8, float> quant8_scale = { 8, { 0.00018673627346288413, 0.0001604502322152257, 0.00010251582716591656, 0.00011779281339840963, 8.0260499089490622e-05, 0.00013259169645607471, 9.2560701887123287e-05, 0.0001780804741429165, } };
const TfArray<8, int> quant8_zero = { 8, { 0,0,0,0,0,0,0,0 } };
const TfLiteAffineQuantization quant8 = { (TfLiteFloatArray*)&quant8_scale, (TfLiteIntArray*)&quant8_zero, 0 };
const MODEL_SECTION(EI_MODEL_SECTION) ALIGN(16) int8_t tensor_data9[8*1*1*48] = { 
  /* [0][0][][] */ 127,-27,25,-27,26,51,-6,39,110,-93,50,13,-51,65,15,-40,15,-28,-40,-18,9,-50,16,-35,-55,-32,-66,-37,-36,86,-38,33,32,-50,16,-18,64,-66,-55,17,16,-31,-81,-5,48,-28,70,-43, 
  /* [1][0][][] */ 48,-4,-11,62,56,54,11,30,64,-89,-2,11,39,22,-40,-9,-33,-46,-78,-1,4,-45,53,66,-6,-61,-21,46,-31,62,-64,127,-23,37,-28,-15,-57,-19,-7,-16,-55,-31,-38,39,12,-5,19,-91, 
  /* [2][0][][] */ -19,-15,-85,30,-81,-46,-19,58,-108,-74,-80,-33,-28,40,-117,-13,73,-70,43,-17,127,74,-25,11,44,98,17,-96,-45,-6,66,13,-25,46,66,-73,64,-3,91,107,-31,100,37,5,-93,78,-50,81, 
  /* [3][0][][] */ 1,-32,-8,40,-22,3,-13,55,73,83,-127,-23,11,-20,-30,85,-56,-22,-17,51,-32,6,77,1,5,8,-80,57,-36,36,-49,-17,20,16,33,26,60,-4,34,14,-60,70,62,18,21,-16,-15,-42, 
  /* [4][0][][] */ -20,-64,17,-40,1,101,-51,-70,2,-39,67,27,-48,-34,-11,23,73,13,-20,39,-76,-38,110,-4,-87,-24,11,8,23,-27,-5,70,-61,52,-23,49,-32,44,-3,9,-23,44,-32,46,127,51,-27,4, 
  /* [5][0][][] */ -68,-66,51,-127,-18,14,-34,-56,-5,61,-55,73,-75,21,51,12,71,50,68,17,26,1,-18,-64,41,-72,-8,-45,-13,-37,28,-72,-11,-47,46,2,-23,28,35,68,84,7,12,-21,-19,-8,-26,27, 
  /* [6][0][][] */ -69,-62,49,28,-61,-53,4,-70,-98,26,-127,27,25,-43,51,18,-36,14,28,126,-8,-9,79,66,-82,-9,71,16,23,-32,-27,-75,-37,64,65,-108,-46,78,64,-39,-62,71,85,-58,-1,-43,-48,0, 
  /* [7][0][][] */ 17,-1,25,-10,13,22,-47,-40,-127,-34,92,20,2,-27,21,9,18,38,3,-19,-46,10,-10,-46,31,3,-50,14,-8,-24,-38,-44,-92,-57,-36,5,58,-25,-29,6,51,-3,41,-22,11,-42,46,13, 
};
const TfArray<4, int> tensor_dimension9 = { 4, { 8,1,1,48 } };
const TfArray<8, float> quant9_scale = { 8, { 0.0091786133125424385, 0.007886580191552639, 0.005038941279053688, 0.0057898480445146561, 0.0039450293406844139, 0.0065172547474503517, 0.0045496188104152679, 0.0087531562894582748, } };
const TfLiteAffineQuantization quant9 = { (TfLiteFloatArray*)&quant9_scale, (TfLiteIntArray*)&g0::quant8_zero, 0 };
const MODEL_SECTION(EI_MODEL_SECTION) ALIGN(16) int32_t tensor_data10[48] = { -5125, -569, 9081, 2750, -1722, -5429, -2168, 10676, 8427, -3462, -5285, -6359, -1259, 14191, 10923, 195, 4444, -4995, 5098, -1135, 16145, -4679, -344, -1348, 3745, -6470, -46, -3367, 3828, -19661, -3864, -471, -4341, -805, -3853, -1772, 7370, -5088, 337, -11628, -3289, 4617, -2501, -1835, 541, -2349, 8595, -4010, };
const TfArray<48, float> quant10_scale = { 48, { 0.00030092656379565597, 0.00018081396410707384, 0.00010075645695906132, 0.00010725231550168246, 0.00023433106252923608, 0.00010696915705921128, 0.00022566755069419742, 0.00014811310393270105, 0.00013615287025459111, 0.00038541737012565136, 0.00038755711284466088, 8.9048444351647049e-05, 0.00037954305298626423, 8.540713315596804e-05, 0.00012295717897359282, 0.00019757098925765604, 0.00015408042236231267, 0.00018991361139342189, 0.00016501595382578671, 0.00030383557896129787, 0.00010276995453750715, 0.00020215923723299056, 0.00023893591423984617, 0.00025749788619577885, 0.00014912907499819994, 0.00022106236428953707, 0.00030042871367186308, 0.00039602545439265668, 0.00013218889944255352, 0.00011007786088157445, 0.00019151114975102246, 0.00019113026792183518, 8.3396836998872459e-05, 0.0004185195139143616, 0.00012278028589207679, 0.00013672717614099383, 0.00018918651039712131, 0.00010828117228811607, 7.2091330366674811e-05, 9.5608811534475535e-05, 0.00025110028218477964, 0.00014106179878581315, 0.00026379281189292669, 0.000177951660589315, 0.00015854321827646345, 0.00010727711924118921, 0.00019196666835341603, 0.00018275300681125373, } };
const TfLiteAffineQuantization quant10 = { (TfLiteFloatArray*)&quant10_scale, (TfLiteIntArray*)&g0::quant6_zero, 0 };
const MODEL_SECTION(EI_MODEL_SECTION) ALIGN(16) int8_t tensor_data11[1*3*3*48] = { 
  /* [0][0][][] */ 83,91,-5,59,-2,2,-51,18,35,-21,38,10,3,-108,-43,32,114,54,-90,-3,69,22,-33,-18,69,87,21,-1,-67,33,-9,-53,127,9,127,24,-37,25,122,27,-71,71,-123,-49,34,-69,-48,20, 127,127,-120,97,25,76,-67,-127,59,65,127,40,-24,-11,-30,-10,-62,127,-100,27,56,127,43,-25,28,57,19,127,-127,127,-18,-127,14,-33,43,95,-67,127,85,37,-127,-84,61,-12,12,21,-103,87, 61,42,13,35,1,-2,-31,28,31,-89,39,6,17,-68,-47,-30,102,-15,-55,-22,51,22,-27,41,52,120,19,1,-31,26,-18,-28,111,9,98,8,-23,34,98,21,-39,76,54,44,40,86,-7,1, 
  /* [0][1][][] */ -29,-37,-127,103,27,54,71,-31,46,88,-38,127,127,-13,-32,-84,-29,70,81,-27,-108,36,27,-99,24,95,21,15,2,95,25,55,66,127,57,39,-83,-8,-68,102,90,13,80,-103,17,-91,-19,111, 47,-93,-45,-127,127,21,127,-95,-127,127,9,70,-117,127,127,-15,-127,67,27,127,10,5,127,-1,-127,127,48,-76,-61,7,-127,103,104,-92,50,127,127,40,-15,127,125,-66,-24,7,127,-78,-9,8, -6,-28,-106,62,-15,127,59,-20,41,32,-30,74,-4,-4,-41,-26,-71,68,127,-51,-127,37,-58,127,9,64,27,41,39,77,49,46,22,-9,-20,-115,-44,-23,-14,56,56,86,-9,127,-1,90,-36,67, 
  /* [0][2][][] */ -25,-32,19,19,-6,10,-6,4,29,-17,6,9,38,-82,-32,32,98,23,19,14,-70,37,-9,-12,25,31,-14,2,48,-12,51,9,23,10,122,20,2,68,127,31,23,88,124,-13,-48,-127,14,23, -112,-28,-87,36,-116,28,-71,-10,24,120,-70,44,-17,-37,-12,127,-87,64,-120,-31,-74,49,-14,-25,-21,100,-127,-24,5,106,83,35,46,-16,29,23,-12,71,-1,38,-59,-127,-127,-23,-112,61,-127,127, -17,-23,17,20,14,-20,-5,-9,22,-85,-5,0,-4,-88,-18,6,101,-41,102,26,-69,9,5,30,15,22,-6,-7,58,8,48,5,37,-6,74,41,11,46,121,9,29,90,-59,48,-32,99,22,-4, 
};
const TfArray<4, int> tensor_dimension11 = { 4, { 1,3,3,48 } };
const TfArray<48, float> quant11_scale = { 48, { 0.012789378874003887, 0.0076845930889248848, 0.0042821494862437248, 0.0045582232996821404, 0.009959070011973381, 0.0045461892150342464, 0.009590870700776577, 0.0062948064878582954, 0.0057864971458911896, 0.01638023741543293, 0.016471177339553833, 0.0037845587357878685, 0.016130579635500908, 0.003629803191870451, 0.005225679837167263, 0.0083967670798301697, 0.0065484177321195602, 0.0080713285133242607, 0.007013177964836359, 0.012913011945784092, 0.0043677231296896935, 0.0085917674005031586, 0.010154776275157928, 0.010943659581243992, 0.0063379858620464802, 0.0093951504677534103, 0.012768220156431198, 0.016831081360578537, 0.0056180283427238464, 0.0046783089637756348, 0.0081392237916588783, 0.0081230364739894867, 0.0035443655215203762, 0.017787078395485878, 0.0052181622013449669, 0.0058109047822654247, 0.0080404262989759445, 0.0046019498258829117, 0.0030638815369457006, 0.004063374362885952, 0.010671761818230152, 0.0059951264411211014, 0.011211194097995758, 0.0075629451312124729, 0.0067380866967141628, 0.0045592775568366051, 0.0081585831940174103, 0.0077670025639235973, } };
const TfLiteAffineQuantization quant11 = { (TfLiteFloatArray*)&quant11_scale, (TfLiteIntArray*)&g0::quant6_zero, 3 };
const MODEL_SECTION(EI_MODEL_SECTION) ALIGN(16) int32_t tensor_data12[48] = { 18712, 5519, 1054, 578, 4306, 2272, 4218, 3358, 3033, -2887, 6000, 876, 5521, 1338, 4163, 1427, 5803, -574, 5220, 213, 3138, -384, 3462, 4002, 1480, -2718, 1652, 8430, 802, 4211, 1437, 5555, 785, 3567, -392, -1152, 2420, 2083, 44, 1183, 7769, -627, 10988, 1726, 648, 3696, 3157, -1266, };
const TfArray<48, float> quant12_scale = { 48, { 5.5736669310135767e-05, 0.00015574059216305614, 0.00025542057119309902, 0.00027444458100944757, 0.00017021200619637966, 0.00023726919607724994, 0.00018411496421322227, 0.00020696873252745718, 0.00017306854715570807, 0.00023133940703701228, 0.00015907520719338208, 0.00028527568792924285, 0.00014402472879737616, 0.00023639271967113018, 0.00016410999523941427, 0.00026397666078992188, 0.00012746080756187439, 0.00031874683918431401, 0.00016421210602857172, 0.0001869415573310107, 0.00022330935462377965, 0.00021938097779639065, 0.00016796497220639139, 0.00018692885350901634, 0.00029035998159088194, 0.00019703328143805265, 0.00026751647237688303, 0.00011159813584527001, 0.00022323908342514187, 0.00016641816182527691, 0.00017569816554896533, 0.00015786524454597384, 0.00020112463971599936, 0.00021580203610938042, 0.00020042076357640326, 0.00031933386344462633, 0.00025529306731186807, 0.00016245061124209315, 0.0002706933009903878, 0.00024167849915102124, 0.00012087439972674474, 0.0002399053773842752, 7.9223325883504003e-05, 0.00025579117937013507, 0.0003124189970549196, 0.0001974529295694083, 0.00020279681484680623, 0.00020382794900797307, } };
const TfLiteAffineQuantization quant12 = { (TfLiteFloatArray*)&quant12_scale, (TfLiteIntArray*)&g0::quant6_zero, 0 };
const MODEL_SECTION(EI_MODEL_SECTION) ALIGN(16) int8_t tensor_data13[48*1*1*8] = { 
  /* [0][0][][] */ -127,41,-4,-13,69,41,-7,-35, 
  /* [1][0][][] */ -5,-52,-45,-9,-71,-127,9,18, 
  /* [2][0][][] */ -52,60,-8,-59,-37,42,-56,127, 
  /* [3][0][][] */ 52,45,58,-18,-54,-127,42,-15, 
  /* [4][0][][] */ 28,33,-127,33,-105,108,29,22, 
  /* [5][0][][] */ -15,55,32,-24,-90,-127,-56,-11, 
  /* [6][0][][] */ -64,112,127,-42,-48,-39,10,-43, 
  /* [7][0][][] */ -7,-6,38,56,11,-127,-12,45, 
  /* [8][0][][] */ 127,36,-60,79,-78,-55,-99,1, 
  /* [9][0][][] */ 108,-21,-78,-60,-13,-42,-29,127, 
  /* [10][0][][] */ -94,12,-12,127,6,63,35,-91, 
  /* [11][0][][] */ 27,23,53,-9,4,127,121,83, 
  /* [12][0][][] */ -70,-69,-55,-71,127,-56,-15,47, 
  /* [13][0][][] */ -21,-15,-15,45,19,-127,30,64, 
  /* [14][0][][] */ 75,73,122,19,53,-127,-74,-19, 
  /* [15][0][][] */ -26,74,127,74,-14,11,45,-86, 
  /* [16][0][][] */ -92,-38,43,-67,127,21,-54,-5, 
  /* [17][0][][] */ 39,-42,-53,8,-18,127,-28,46, 
  /* [18][0][][] */ -36,127,84,-57,-48,43,80,-84, 
  /* [19][0][][] */ 15,122,107,127,-46,39,47,31, 
  /* [20][0][][] */ 13,-2,82,-127,-60,-7,71,-34, 
  /* [21][0][][] */ -77,71,42,-127,115,52,108,0, 
  /* [22][0][][] */ 81,-24,-107,87,46,-59,-57,127, 
  /* [23][0][][] */ 26,-72,-127,-27,62,-38,-70,105, 
  /* [24][0][][] */ 45,-21,-99,17,-43,40,-127,106, 
  /* [25][0][][] */ -12,-22,49,7,127,0,-73,-52, 
  /* [26][0][][] */ 6,127,96,-11,-62,-19,51,-38, 
  /* [27][0][][] */ -30,53,127,-57,18,22,69,-112, 
  /* [28][0][][] */ 57,1,91,127,75,-21,36,96, 
  /* [29][0][][] */ 107,95,107,38,-62,21,-127,96, 
  /* [30][0][][] */ 46,12,-69,90,-127,-60,-31,83, 
  /* [31][0][][] */ 25,121,82,-52,-77,40,120,-127, 
  /* [32][0][][] */ 60,-24,-4,21,117,127,27,-31, 
  /* [33][0][][] */ 11,-32,-127,1,31,-38,-17,71, 
  /* [34][0][][] */ 28,-59,15,-127,-2,70,-22,6, 
  /* [35][0][][] */ -32,27,104,-15,6,-127,7,-27, 
  /* [36][0][][] */ 2,17,-46,-127,-18,8,12,-42, 
  /* [37][0][][] */ 64,-24,-20,-99,-79,127,-72,-79, 
  /* [38][0][][] */ 96,-64,-39,100,65,36,-40,127, 
  /* [39][0][][] */ 127,98,31,83,-16,106,-46,1, 
  /* [40][0][][] */ 43,-103,-127,-30,19,24,-70,106, 
  /* [41][0][][] */ -23,-80,-127,-127,-12,-107,-49,-8, 
  /* [42][0][][] */ 72,127,86,105,-90,-7,22,47, 
  /* [43][0][][] */ 127,-28,-98,-113,-72,-24,26,69, 
  /* [44][0][][] */ -5,52,99,-87,-72,-10,53,-127, 
  /* [45][0][][] */ 35,7,-127,52,-24,25,16,58, 
  /* [46][0][][] */ 43,-60,-74,-127,26,-29,-47,49, 
  /* [47][0][][] */ 104,-101,127,-36,97,-32,32,13, 
};
const TfArray<48, float> quant13_scale = { 48, { 0.00073314976179972291, 0.0020485827699303627, 0.0033597548026591539, 0.0036099927965551615, 0.0022389369551092386, 0.0031209948938339949, 0.0024218140169978142, 0.0027224281802773476, 0.0022765113972127438, 0.0030429954640567303, 0.0020924457348883152, 0.0037524632643908262, 0.0018944743787869811, 0.0031094658188521862, 0.0021586723159998655, 0.0034722997806966305, 0.0016765957698225975, 0.0041927364654839039, 0.0021600155159831047, 0.002458994509652257, 0.0029373697470873594, 0.0028856964781880379, 0.0022093800362199545, 0.0024588273372501135, 0.0038193413056433201, 0.0025917391758412123, 0.0035188619513064623, 0.0014679410960525274, 0.0029364454094320536, 0.0021890334319323301, 0.0023111009504646063, 0.0020765301305800676, 0.002645556116476655, 0.002838619751855731, 0.0026362973731011152, 0.0042004580609500408, 0.0033580774907022715, 0.0021368451416492462, 0.0035606492310762405, 0.0031789939384907484, 0.0015899593709036708, 0.0031556705944240093, 0.0010420888429507613, 0.003364629577845335, 0.0041095013730227947, 0.0025972591247409582, 0.0026675516273826361, 0.0026811149436980486, } };
const TfLiteAffineQuantization quant13 = { (TfLiteFloatArray*)&quant13_scale, (TfLiteIntArray*)&g0::quant6_zero, 0 };
const MODEL_SECTION(EI_MODEL_SECTION) ALIGN(16) int32_t tensor_data14[8] = { -12241, -29509, 2422, 5619, -13355, 1097, -22618, -107, };
const TfArray<8, float> quant14_scale = { 8, { 0.0001692551450105384, 9.6475057944189757e-05, 5.4337655456038192e-05, 8.3406688645482063e-05, 9.5518844318576157e-05, 7.2034745244309306e-05, 7.6782955147791654e-05, 9.7082665888592601e-05, } };
const TfLiteAffineQuantization quant14 = { (TfLiteFloatArray*)&quant14_scale, (TfLiteIntArray*)&g0::quant8_zero, 0 };
const MODEL_SECTION(EI_MODEL_SECTION) ALIGN(16) int8_t tensor_data15[8*1*1*48] = { 
  /* [0][0][][] */ 56,48,-81,57,23,26,-98,-39,13,-22,-12,-37,-10,-8,49,10,58,-26,52,-26,27,-44,48,0,10,-30,-14,25,-16,-11,-15,5,54,19,6,18,127,65,21,-26,-4,-22,-6,-30,78,30,11,-56, 
  /* [1][0][][] */ 69,21,10,0,44,84,-17,-21,33,60,-47,-65,111,-13,16,36,28,30,29,-77,127,-32,40,46,35,25,48,24,20,-68,60,78,45,88,-10,101,54,30,7,21,72,22,34,17,13,32,92,-59, 
  /* [2][0][][] */ -16,8,80,115,-37,36,-12,49,33,75,-3,-76,-36,117,41,27,-83,-104,84,17,0,68,-69,-91,-21,-29,31,-4,-127,22,-4,7,-42,-34,-95,-49,27,47,-98,-25,-17,-33,-47,30,73,-96,-36,27, 
  /* [3][0][][] */ -23,42,-74,4,32,-64,8,60,116,-77,-56,14,-1,-14,9,56,27,6,-11,-35,10,4,-66,33,-26,-21,45,-10,63,-46,46,-49,28,-27,-47,-39,-127,15,-107,26,-29,-66,45,-15,-61,12,-23,-36, 
  /* [4][0][][] */ 41,-17,27,-21,-70,57,34,69,-123,-48,79,42,61,-52,-69,-63,76,66,48,-28,3,-79,-19,62,-36,9,-51,-122,-51,-67,77,31,78,22,127,73,71,46,73,20,25,30,-54,-26,71,70,93,-49, 
  /* [5][0][][] */ 43,81,18,113,35,20,-64,-105,-109,25,-6,11,34,64,38,-76,77,120,-25,32,-14,-75,-20,-70,-115,-91,-44,66,0,37,-35,40,0,-94,74,9,-49,127,-44,-123,-26,-37,-18,-48,-17,-15,-47,107, 
  /* [6][0][][] */ 103,58,-6,127,-86,7,16,61,15,-84,79,89,69,-40,-14,-41,43,29,-70,23,62,-26,-24,10,4,59,-46,-40,21,-32,57,45,24,-49,6,76,88,-93,8,-1,-93,72,-107,51,49,106,99,-49, 
  /* [7][0][][] */ 25,4,127,46,-30,63,-89,4,-32,105,-15,-10,56,49,19,-7,-49,-19,-64,-6,-7,29,8,-43,-12,35,59,-7,0,-8,19,-9,-84,-21,56,31,90,2,34,-13,-26,-37,-29,-57,-6,-27,1,17, 
};
const TfArray<8, float> quant15_scale = { 8, { 0.0071933437138795853, 0.0041001900099217892, 0.0023093502968549728, 0.0035447841510176659, 0.0040595508180558681, 0.0030614766292273998, 0.0032632756046950817, 0.0041260132566094398, } };
const TfLiteAffineQuantization quant15 = { (TfLiteFloatArray*)&quant15_scale, (TfLiteIntArray*)&g0::quant8_zero, 0 };
const MODEL_SECTION(EI_MODEL_SECTION) ALIGN(16) int32_t tensor_data16[48] = { 16818, -11594, -745, 1838, 207, 11087, 3902, -11, -6208, 1314, -628, -2988, -4804, -8898, 2841, -2960, -6831, 20584, -1351, -8086, 13686, 2740, 635, -2570, -712, 710, -3386, -53, -1386, 2351, 2498, 15170, 11180, 1593, 1792, 15492, -397, 12158, 318, 1451, -4820, -4333, -1329, 3151, 3379, 20224, 12768, -3299, };
const TfArray<48, float> quant16_scale = { 48, { 9.6139934612438083e-05, 9.9185766885057092e-05, 0.0012350709876045585, 0.00034482748014852405, 0.00023100862745195627, 0.00015761108079459518, 0.00011878260556841269, 0.00049271411262452602, 0.0001171397088910453, 0.00043886475032195449, 0.0002288958930876106, 0.00012227929255459458, 0.00021802540868520737, 0.00011128801270388067, 0.00019007592345587909, 9.6059622592292726e-05, 0.00012315789354033768, 8.5166204371489584e-05, 0.00042360491352155805, 0.00010025769006460905, 0.00011274449207121506, 0.00038411165587604046, 0.0002003366535063833, 0.00019886638619937003, 0.00029351611738093197, 0.00027884248993359506, 0.00021754179033450782, 0.00030935555696487427, 0.0003081154718529433, 0.00021494219254236668, 0.00012286612764000893, 0.00010872779239434749, 0.0001247307809535414, 0.00025529979029670358, 0.00016080951900221407, 0.00010157941142097116, 0.00076276436448097229, 0.00019591260934248567, 0.0001637730747461319, 0.00049777323147282004, 0.00016180703823920339, 0.00018823501886799932, 0.0002224464260507375, 0.00011883695697179064, 0.00022696179803460836, 6.6159023845102638e-05, 0.00011459561937954277, 0.0002070139889838174, } };
const TfLiteAffineQuantization quant16 = { (TfLiteFloatArray*)&quant16_scale, (TfLiteIntArray*)&g0::quant6_zero, 0 };
const MODEL_SECTION(EI_MODEL_SECTION) ALIGN(16) int8_t tensor_data17[1*3*3*48] = { 
  /* [0][0][][] */ -27,-6,40,-5,127,-46,24,5,22,24,-34,22,-7,20,-63,32,82,-51,-22,66,-93,-4,-68,-6,-12,8,18,-48,-19,127,21,-67,-15,86,127,-113,13,-63,-127,-28,27,-38,-3,-75,0,-26,-127,26, -116,73,-15,33,-12,-80,111,-28,72,10,-14,127,38,127,-4,59,127,-85,13,44,-30,-34,78,-88,10,46,-90,27,-17,-89,121,-127,-127,-107,39,-10,-59,-28,-115,16,-33,-52,42,-127,18,-104,32,46, -26,-39,3,-15,47,-44,19,-2,30,15,-59,-14,3,3,-46,23,73,2,-14,46,-65,-3,-92,6,26,7,22,-97,-29,64,-57,-48,31,-21,105,-76,15,-29,-91,4,36,-30,29,-47,-11,-83,-112,-12, 
  /* [0][1][][] */ -127,83,-21,-66,5,-89,6,-11,21,18,-11,50,58,77,-52,75,90,-127,7,69,-30,-85,-79,-25,-127,-6,-24,13,-8,-6,64,-70,-75,127,-92,-94,38,-58,44,57,-80,17,-90,74,-17,-106,22,-45, -26,91,127,127,-47,60,-127,127,127,-127,-78,74,127,84,127,-59,-26,-107,127,-15,-127,127,127,11,92,75,64,127,127,-92,127,-12,-38,-114,-13,-127,127,127,93,57,-24,127,-24,96,127,127,-22,-127, -110,23,-47,-50,-53,-127,11,-22,-14,4,32,59,37,70,-38,127,99,-65,-9,89,39,-98,-92,-28,20,-13,-19,18,-3,6,42,-30,-13,-33,-111,-70,22,-59,45,-127,-47,17,127,74,-35,-103,-5,98, 
  /* [0][2][][] */ -42,0,1,1,19,-13,41,-2,44,31,101,14,-14,-19,-28,120,42,-25,-54,34,15,-3,-33,40,-13,-14,-13,-29,10,47,-49,11,-18,37,-67,32,-43,-40,59,-40,64,-17,-21,-10,-25,51,-20,-28, -117,127,-1,7,-82,-127,54,-80,78,26,59,-54,-46,8,-46,108,51,-4,-8,127,-120,-4,60,127,15,-127,127,7,23,-64,-92,-85,13,-59,-70,-107,-72,-87,42,27,127,64,-53,62,-29,-94,-113,-8, 4,1,20,9,-8,-12,42,8,16,27,127,10,14,-19,-23,74,20,-9,-55,10,3,-5,-35,31,12,-16,-14,-61,5,-10,-61,26,-13,10,-45,66,-40,-14,41,-3,43,-11,21,-8,-28,-83,-20,19, 
};
const TfArray<48, float> quant17_scale = { 48, { 0.0040859472937881947, 0.0042153950780630112, 0.052490517497062683, 0.014655167236924171, 0.0098178666085004807, 0.0066984705626964569, 0.0050482605583965778, 0.020940350368618965, 0.0049784374423325062, 0.018651751801371574, 0.0097280750051140785, 0.0051968698389828205, 0.0092660794034600258, 0.0047297403216362, 0.0080782268196344376, 0.0040825339965522289, 0.0052342102862894535, 0.0036195635329931974, 0.018003208562731743, 0.0042609516531229019, 0.0047916406765580177, 0.016324745491147041, 0.00851430743932724, 0.0084518212825059891, 0.012474434450268745, 0.011850805021822453, 0.0092455260455608368, 0.013147611171007156, 0.013094907626509666, 0.0091350432485342026, 0.0052218101918697357, 0.0046209311112761497, 0.0053010578267276287, 0.010850241407752037, 0.0068344045430421829, 0.0043171248398721218, 0.032417483627796173, 0.0083262855187058449, 0.0069603556767106056, 0.021155362948775291, 0.0068767992779612541, 0.0079999882727861404, 0.009453972801566124, 0.0050505707040429115, 0.0096458764746785164, 0.0028117585461586714, 0.004870313685387373, 0.0087980944663286209, } };
const TfLiteAffineQuantization quant17 = { (TfLiteFloatArray*)&quant17_scale, (TfLiteIntArray*)&g0::quant6_zero, 3 };
const MODEL_SECTION(EI_MODEL_SECTION) ALIGN(16) int32_t tensor_data18[48] = { 594, 5679, -7499, 3775, 2833, 4039, 1510, 14998, 5614, 5141, -1324, -259, 836, 4816, 2413, -523, 76, 3850, 11751, 1191, 2152, 11309, 2758, 4415, 8591, 7298, 1589, 7182, 2713, 3433, -1421, 7791, 1049, 5464, 5736, 3329, 39961, 8918, 4019, 13686, 1644, 847, 5530, 1148, 3695, 1022, 948, 3142, };
const TfArray<48, float> quant18_scale = { 48, { 0.0003233150637242943, 0.00014280116010922939, 0.00010769866639748216, 0.00018733402248471975, 0.00017592469521332532, 0.00016214173228945583, 0.00029244381585158408, 6.5279135014861822e-05, 0.00015529105439782143, 0.00013731035869568586, 0.00022872313275001943, 0.00023295445134863257, 0.00023747698287479579, 0.0001371726393699646, 0.00021692532754968852, 0.00016043246432673186, 0.00024044013116508722, 0.00017971698252949864, 8.2645623479038477e-05, 0.00017220870358869433, 0.00022622152755502611, 8.0543279182165861e-05, 0.00020134841906838119, 0.00015343136328738183, 0.00010290604404872283, 0.00012600288027897477, 0.00015670480206608772, 0.00012661106302402914, 9.3485628894995898e-05, 0.00020987060270272195, 0.00034567422699183226, 9.4967792392708361e-05, 0.00032301072496920824, 0.00014697432925458997, 0.00011048938904423267, 0.00020817216136492789, 3.8078655052231625e-05, 9.9192307970952243e-05, 0.00016662465350236744, 7.4387986387591809e-05, 0.00018657206965144724, 0.00026458647334948182, 0.00013199062959756702, 0.00021289459255058318, 0.00016612568288110197, 0.00017605889297556132, 0.00036236614687368274, 0.00010992542956955731, } };
const TfLiteAffineQuantization quant18 = { (TfLiteFloatArray*)&quant18_scale, (TfLiteIntArray*)&g0::quant6_zero, 0 };
const MODEL_SECTION(EI_MODEL_SECTION) ALIGN(16) int8_t tensor_data19[48*1*1*8] = { 
  /* [0][0][][] */ -88,-127,-44,28,-44,-10,51,-45, 
  /* [1][0][][] */ -9,127,44,-80,4,-91,-62,95, 
  /* [2][0][][] */ -127,-69,42,8,76,8,25,-20, 
  /* [3][0][][] */ 0,-32,-127,-49,25,-48,-26,55, 
  /* [4][0][][] */ -64,-124,127,3,104,-48,77,27, 
  /* [5][0][][] */ -34,59,63,-90,97,43,-55,127, 
  /* [6][0][][] */ -115,106,41,71,-58,5,45,-127, 
  /* [7][0][][] */ 53,-5,54,38,59,-127,-1,93, 
  /* [8][0][][] */ 3,65,-13,-23,18,87,127,-55, 
  /* [9][0][][] */ 70,109,16,-80,-76,-75,-60,127, 
  /* [10][0][][] */ 63,16,33,29,-42,24,-127,-63, 
  /* [11][0][][] */ -57,18,-116,-75,127,13,37,57, 
  /* [12][0][][] */ 94,46,-40,2,127,85,14,5, 
  /* [13][0][][] */ -127,-125,-13,68,-103,54,80,18, 
  /* [14][0][][] */ -32,76,-100,85,-68,127,-39,33, 
  /* [15][0][][] */ -11,-73,-6,-88,127,69,-10,45, 
  /* [16][0][][] */ 72,-86,4,52,36,-17,45,-127, 
  /* [17][0][][] */ -74,-79,-127,107,7,84,82,-101, 
  /* [18][0][][] */ 88,5,107,30,-20,-127,-74,-43, 
  /* [19][0][][] */ -35,127,45,23,115,-101,-83,-34, 
  /* [20][0][][] */ -72,-17,-127,-43,27,-4,-9,-4, 
  /* [21][0][][] */ -95,-17,56,78,-76,-90,127,-56, 
  /* [22][0][][] */ 60,4,-127,-82,-61,-21,12,64, 
  /* [23][0][][] */ -25,40,127,-19,-91,39,-4,-91, 
  /* [24][0][][] */ -83,89,94,96,127,88,-6,-45, 
  /* [25][0][][] */ -57,-127,-65,27,-68,37,50,1, 
  /* [26][0][][] */ 97,127,-124,-62,-113,-24,-31,31, 
  /* [27][0][][] */ 49,55,-63,5,-127,26,-28,-13, 
  /* [28][0][][] */ -45,76,43,-86,90,111,-127,-123, 
  /* [29][0][][] */ 30,2,-11,-86,-127,-10,27,-54, 
  /* [30][0][][] */ -88,3,31,127,44,15,-42,-21, 
  /* [31][0][][] */ 7,-114,-7,-67,-127,67,-52,-107, 
  /* [32][0][][] */ -127,-2,31,-10,6,-32,3,19, 
  /* [33][0][][] */ 38,-76,-127,-94,-8,15,-36,15, 
  /* [34][0][][] */ 41,100,98,11,-127,-82,107,-56, 
  /* [35][0][][] */ 91,22,15,7,-102,-53,-127,-43, 
  /* [36][0][][] */ 127,7,65,-34,1,-1,53,59, 
  /* [37][0][][] */ 110,105,-20,-8,78,70,-127,25, 
  /* [38][0][][] */ -41,91,109,127,-32,50,58,-53, 
  /* [39][0][][] */ 29,46,127,-30,82,-40,-51,25, 
  /* [40][0][][] */ 67,45,10,-3,-57,-127,26,-46, 
  /* [41][0][][] */ 31,-56,24,127,-17,59,-5,79, 
  /* [42][0][][] */ -35,-127,114,-50,122,-50,117,53, 
  /* [43][0][][] */ -15,-36,-96,-36,114,35,-70,127, 
  /* [44][0][][] */ 109,-25,127,-1,4,39,-60,-4, 
  /* [45][0][][] */ -54,7,25,-30,-109,-127,-21,109, 
  /* [46][0][][] */ -68,66,80,33,5,-25,39,-127, 
  /* [47][0][][] */ 49,-35,14,127,-20,-96,107,49, 
};
const TfArray<48, float> quant19_scale = { 48, { 0.0056820427998900414, 0.002509633544832468, 0.0018927309429273009, 0.0032922683749347925, 0.0030917571857571602, 0.0028495308943092823, 0.005139501765370369, 0.0011472364421933889, 0.0027291348669677973, 0.0024131364189088345, 0.0040196538902819157, 0.0040940162725746632, 0.00417349673807621, 0.0024107159115374088, 0.0038123154081404209, 0.0028194915503263474, 0.0042255721054971218, 0.0031584040261805058, 0.0014524407451972365, 0.0030264512170106173, 0.0039756898768246174, 0.0014154934324324131, 0.0035385617520660162, 0.0026964519638568163, 0.0018085038755089045, 0.0022144149988889694, 0.0027539804577827454, 0.0022251035552471876, 0.0016429465031251311, 0.003688333323225379, 0.0060749901458621025, 0.0016689945477992296, 0.0056766942143440247, 0.0025829740334302187, 0.0019417760195210576, 0.0036584844347089529, 0.00066920649260282516, 0.0017432374879717827, 0.0029283151961863041, 0.0013073183363303542, 0.0032788775861263275, 0.0046499278396368027, 0.0023196458350867033, 0.0037414778489619493, 0.0029195460956543684, 0.0030941155273467302, 0.0063683390617370605, 0.0019318647682666779, } };
const TfLiteAffineQuantization quant19 = { (TfLiteFloatArray*)&quant19_scale, (TfLiteIntArray*)&g0::quant6_zero, 0 };
const MODEL_SECTION(EI_MODEL_SECTION) ALIGN(16) int32_t tensor_data20[8] = { 4444, -1938, 13139, -8805, -13144, -13083, -6974, -885, };
const TfArray<8, float> quant20_scale = { 8, { 0.00010176065552514046, 0.00014086462033446878, 9.7889031167142093e-05, 0.00012126850197091699, 0.0001458433544030413, 0.00011256436846451834, 0.00022430370154324919, 0.0001931057486217469, } };
const TfLiteAffineQuantization quant20 = { (TfLiteFloatArray*)&quant20_scale, (TfLiteIntArray*)&g0::quant8_zero, 0 };
const MODEL_SECTION(EI_MODEL_SECTION) ALIGN(16) int8_t tensor_data21[8*1*1*48] = { 
  /* [0][0][][] */ -18,-31,51,-44,48,81,74,80,99,-42,-22,55,-36,-15,11,-16,42,40,17,-48,-25,15,-78,-31,22,-10,18,-61,-29,26,38,24,28,42,56,2,113,-50,-66,3,-58,-70,-36,-1,-71,-85,-127,60, 
  /* [1][0][][] */ -11,-1,-33,56,-2,14,-35,-23,-51,25,15,83,-27,9,-25,127,43,59,13,-29,-38,-29,-67,25,7,-13,-22,-81,51,-6,-57,-66,67,-40,-32,-68,36,34,54,-40,1,64,41,-43,-6,-37,-54,-16, 
  /* [2][0][][] */ -3,-67,-19,-1,-35,10,10,18,117,25,-3,-9,-22,-80,29,3,4,-53,-7,-17,-106,59,-3,30,13,51,-30,-22,-24,-47,50,-53,-97,27,-41,60,-70,55,-22,-21,127,-16,-6,44,23,33,-50,-36, 
  /* [3][0][][] */ -39,-110,104,65,24,-100,-12,-13,-124,127,56,-60,52,16,-15,23,66,36,-16,48,79,74,34,-65,8,80,56,36,-23,-79,20,16,-20,-5,49,1,-13,-88,-34,51,-27,-16,11,-76,-82,11,1,39, 
  /* [4][0][][] */ -6,60,-18,73,41,5,5,5,-59,83,44,75,2,21,66,11,8,-99,-12,-14,91,-4,-108,59,79,-24,37,23,51,26,-5,-59,-58,127,4,28,64,-33,19,21,-23,47,13,-28,3,-52,-31,15, 
  /* [5][0][][] */ -20,2,-7,-76,-124,28,127,18,9,60,-35,-31,-109,-6,71,-39,-94,42,-59,-78,2,99,0,37,108,24,-15,20,-27,-21,121,-60,-11,102,82,76,-24,56,98,47,-32,-49,-26,38,-55,53,19,52, 
  /* [6][0][][] */ -3,-19,-12,29,-54,-54,12,3,24,-15,38,8,-44,-25,26,50,6,-58,9,-68,68,-26,1,-30,9,-1,8,37,37,0,10,127,45,-13,-6,23,-1,-7,16,19,-2,33,-30,-47,-3,-25,-23,35, 
  /* [7][0][][] */ -29,-21,-43,-6,6,-22,1,8,38,7,21,-4,-11,12,3,1,34,-5,2,-2,-59,12,13,-30,-4,-8,-57,-19,-10,-19,19,33,20,-11,25,7,-19,127,-13,-45,-43,-2,-45,-38,25,62,-76,-9, 
};
const TfArray<8, float> quant21_scale = { 8, { 0.0043248278088867664, 0.0059867464005947113, 0.0041602835990488529, 0.0051539111882448196, 0.0061983424238860607, 0.0047839856706559658, 0.0095329070463776588, 0.0082069942727684975, } };
const TfLiteAffineQuantization quant21 = { (TfLiteFloatArray*)&quant21_scale, (TfLiteIntArray*)&g0::quant8_zero, 0 };
const MODEL_SECTION(EI_MODEL_SECTION) ALIGN(16) int32_t tensor_data22[48] = { -73, 29527, 26631, -803, 303, -12448, 21221, 13547, -13233, 6388, -1197, 14586, 19308, -14092, -11381, -452, 618, 28765, -606, 162, 57497, 10014, -7768, -6963, 14273, 13420, -2782, -1684, -3591, 270, 26083, -870, -1598, 7657, 13011, 12463, -2270, 44239, -4868, -1070, 29799, 624, -3218, 14852, -105, -772, -3100, 16659, };
const TfArray<48, float> quant22_scale = { 48, { 0.00025311423814855516, 8.5928892076481134e-05, 0.000124870624858886, 9.4182330940384418e-05, 5.7644025218905881e-05, 0.00014338902838062495, 0.00011574297241168097, 9.5798481197562069e-05, 0.00035885735996998847, 5.1815743063343689e-05, 7.4973533628508449e-05, 9.2274196504149586e-05, 0.0001011526765068993, 0.00018631896818988025, 8.1457634223625064e-05, 6.4042447775136679e-05, 6.407745968317613e-05, 0.00014670060772914439, 0.00048323770170100033, 7.147376163629815e-05, 4.032840661238879e-05, 9.0702727902680635e-05, 7.4898096499964595e-05, 0.00013082858640700579, 9.6053503511939198e-05, 8.9381413999944925e-05, 0.00018189971160609275, 0.00011929171159863472, 0.0001113121397793293, 0.00020750610565301031, 0.00013404998753685504, 9.5087169029284269e-05, 4.8545512981945649e-05, 0.00010101195948664099, 8.2397818914614618e-05, 0.00011380133219063282, 7.1710652264300734e-05, 8.5397492512129247e-05, 0.00010016631858889014, 0.00012942787725478411, 0.00011066045408369973, 0.00019587606948334724, 8.2215905422344804e-05, 7.6988042565062642e-05, 0.00017766356177162379, 0.00017702321929391474, 0.00027253269217908382, 0.00012344124843366444, } };
const TfLiteAffineQuantization quant22 = { (TfLiteFloatArray*)&quant22_scale, (TfLiteIntArray*)&g0::quant6_zero, 0 };
const MODEL_SECTION(EI_MODEL_SECTION) ALIGN(16) int8_t tensor_data23[1*3*3*48] = { 
  /* [0][0][][] */ 46,-95,-7,29,88,37,-62,-35,24,51,124,-41,-25,90,52,41,75,-78,53,69,-91,-104,34,91,-55,-49,76,90,72,79,-45,59,55,-55,-122,-88,75,-64,94,9,-112,82,69,-55,44,94,52,-96, 77,-127,-55,74,116,50,-61,-83,37,75,101,-75,-39,84,63,66,50,-88,51,97,-97,-126,54,127,-68,-80,113,102,117,127,-54,77,44,-77,-127,-75,95,-94,77,20,-117,59,67,-69,64,123,59,-110, 55,-85,-35,28,43,-7,-26,-42,36,26,34,-32,-55,18,42,44,7,-16,35,30,-20,-73,44,64,-34,-15,32,24,10,65,-8,20,12,-72,-47,-28,37,-49,23,6,-45,30,25,-46,3,30,10,-41, 
  /* [0][1][][] */ 39,-89,-72,78,127,81,-127,-70,94,104,123,-96,-113,124,127,87,117,-101,44,115,-95,-113,85,95,-119,-85,100,102,80,47,-94,99,121,-127,-123,-127,95,-97,112,79,-124,110,79,-127,87,127,44,-94, 40,-127,-127,127,119,127,-127,-127,127,127,127,-127,-127,127,107,127,127,-127,59,127,-127,-127,127,115,-127,-127,127,127,127,58,-127,127,127,-110,-100,-104,127,-127,127,127,-127,127,127,-97,127,126,52,-127, -12,-73,-80,49,36,23,-66,-47,59,50,63,-59,-88,19,82,73,35,-34,23,59,-29,-67,72,61,-47,-37,24,51,48,1,-37,26,57,-96,-49,-4,43,-49,42,48,-34,53,32,-72,41,2,15,-62, 
  /* [0][2][][] */ -46,-24,-65,64,36,42,-54,-12,-62,28,24,-51,-70,61,98,53,92,-30,-89,50,-24,-15,49,53,-56,-27,50,57,8,-27,-41,22,77,-56,-19,-71,52,-44,37,78,-38,94,34,-95,59,-1,-109,-37, -127,-54,-93,95,53,63,-65,-30,-48,51,60,-51,-82,59,86,86,99,-32,-127,67,-47,-37,64,56,-80,-23,44,64,28,-14,-62,34,89,-85,-8,-48,55,-56,31,96,-24,35,52,-118,54,-3,-127,-80, -64,-7,-70,42,15,13,-2,25,-63,19,43,-10,-27,16,79,41,35,-16,-74,68,-21,9,29,20,-36,-7,4,28,-2,-26,-14,10,53,-25,-16,8,30,-12,-4,45,-19,28,19,-42,29,-28,-57,-35, 
};
const TfArray<48, float> quant23_scale = { 48, { 0.010757355019450188, 0.0036519779823720455, 0.0053070015273988247, 0.0040027489885687828, 0.0024498710408806801, 0.0060940333642065525, 0.0049190763384103775, 0.0040714354254305363, 0.015251437202095985, 0.0022021690383553505, 0.0031863751355558634, 0.0039216531440615654, 0.0042989887297153473, 0.0079185562208294868, 0.0034619495272636414, 0.0027218039613217115, 0.0027232919819653034, 0.0062347757630050182, 0.020537601783871651, 0.0030376347713172436, 0.0017139572883024812, 0.0038548659067600965, 0.0031831690575927496, 0.0055602146312594414, 0.0040822736918926239, 0.003798709949478507, 0.0077307377941906452, 0.0050698975101113319, 0.0047307657077908516, 0.0088190091773867607, 0.0056971246376633644, 0.0040412046946585178, 0.0020631842780858278, 0.004293008241802454, 0.0035019072238355875, 0.004836556501686573, 0.0030477026011794806, 0.0036293934099376202, 0.0042570685036480427, 0.0055006849579513073, 0.0047030691057443619, 0.0083247330039739609, 0.0034941758494824171, 0.003271991852670908, 0.0075507014989852905, 0.007523486390709877, 0.011582639068365097, 0.005246252752840519, } };
const TfLiteAffineQuantization quant23 = { (TfLiteFloatArray*)&quant23_scale, (TfLiteIntArray*)&g0::quant6_zero, 3 };
const MODEL_SECTION(EI_MODEL_SECTION) ALIGN(16) int32_t tensor_data24[48] = { -2041, 4979, 4174, -549, -50, 8127, 3079, 1595, 8796, 1337, -2526, 1957, 3812, 1154, -213, 862, -1301, 8273, -3063, -886, 1523, 977, 533, -436, 170, 3767, -1583, -905, -695, -2866, 8999, 3185, 742, 1061, 508, 1340, 1601, 7522, 1217, 644, 6565, -2606, 582, 1238, -1288, -2075, 15575, 2633, };
const TfArray<48, float> quant24_scale = { 48, { 0.00025200270465575159, 0.00016532340669073164, 0.00019966420950368047, 0.00032276514684781432, 0.0005117689142934978, 0.00011009872832801193, 0.00028176570776849985, 0.00025430932873860002, 0.00010923953232122585, 0.00039789130096323788, 0.00018482303130440414, 0.00028118237969465554, 0.00018606615776661783, 0.00032189354533329606, 0.00040526789962314069, 0.00021451755310408771, 0.00026053359033539891, 0.00011646623170236126, 0.00015158159658312798, 0.00033013394568115473, 0.0003190110728610307, 0.00028216949431225657, 0.00028479826869443059, 0.00025583320530131459, 0.00034385878825560212, 0.00016201769176404923, 0.00027694570599123836, 0.00026943461853079498, 0.00030901422724127769, 0.00016093072190415114, 0.00011715869186446071, 0.00022254110081121325, 0.00035061041126027703, 0.00031154972384683788, 0.00025539807393215597, 0.00025984668172895908, 0.00019293803779873997, 0.00011729189282050356, 0.00034904913627542555, 0.00022416502179112285, 0.00014293155982159078, 0.00011577623808989301, 0.0003807280445471406, 0.00030895086820237339, 0.00034395235707052052, 0.00023016454360913485, 7.2376751631963998e-05, 0.00021364048006944358, } };
const TfLiteAffineQuantization quant24 = { (TfLiteFloatArray*)&quant24_scale, (TfLiteIntArray*)&g0::quant6_zero, 0 };
const MODEL_SECTION(EI_MODEL_SECTION) ALIGN(16) int8_t tensor_data25[48*1*1*8] = { 
  /* [0][0][][] */ 45,19,-66,17,-35,34,-127,35, 
  /* [1][0][][] */ 7,-53,-123,3,-6,-25,127,-111, 
  /* [2][0][][] */ -127,-50,-69,-45,-23,56,-109,-13, 
  /* [3][0][][] */ -41,-37,24,-9,-17,-127,-100,-22, 
  /* [4][0][][] */ -43,-127,-46,20,60,19,-33,-53, 
  /* [5][0][][] */ 70,-28,82,48,-127,65,-83,-106, 
  /* [6][0][][] */ 37,-127,-61,-33,-15,65,-48,-84, 
  /* [7][0][][] */ -26,-90,-61,-60,67,-127,-8,19, 
  /* [8][0][][] */ 48,64,63,77,32,-57,3,127, 
  /* [9][0][][] */ -24,-60,-46,2,49,-17,127,-11, 
  /* [10][0][][] */ -34,9,-125,25,22,22,114,-127, 
  /* [11][0][][] */ -3,-31,-39,-3,-127,26,5,48, 
  /* [12][0][][] */ 86,64,-25,31,-63,127,78,-1, 
  /* [13][0][][] */ -52,-3,20,-22,41,-127,1,65, 
  /* [14][0][][] */ -104,-47,1,36,10,73,-127,-110, 
  /* [15][0][][] */ 64,77,55,8,-127,32,119,-44, 
  /* [16][0][][] */ 4,-68,17,67,4,-80,12,-127, 
  /* [17][0][][] */ -83,127,20,-8,-60,-42,-85,-83, 
  /* [18][0][][] */ 80,127,-86,-82,96,88,-97,-70, 
  /* [19][0][][] */ -33,86,-12,9,-127,16,-67,-105, 
  /* [20][0][][] */ -127,-3,6,13,22,16,116,49, 
  /* [21][0][][] */ -36,-2,44,9,-82,-110,-127,37, 
  /* [22][0][][] */ -6,-36,-46,-6,-127,4,5,63, 
  /* [23][0][][] */ 61,-5,-18,-5,127,53,-80,75, 
  /* [24][0][][] */ 127,22,-64,35,-94,18,12,-17, 
  /* [25][0][][] */ 27,-59,44,127,-40,-120,41,95, 
  /* [26][0][][] */ 17,127,7,52,75,-14,22,-16, 
  /* [27][0][][] */ -127,103,53,-28,104,-51,0,87, 
  /* [28][0][][] */ -71,-75,-57,-34,75,-127,17,-8, 
  /* [29][0][][] */ -71,-16,35,49,127,-85,-92,84, 
  /* [30][0][][] */ 127,52,-119,-106,-82,-90,-80,-76, 
  /* [31][0][][] */ 26,2,38,66,-127,5,30,7, 
  /* [32][0][][] */ 127,24,52,38,-49,-71,102,79, 
  /* [33][0][][] */ 122,36,-47,2,-127,-74,35,59, 
  /* [34][0][][] */ 40,-18,-29,30,-51,127,16,-74, 
  /* [35][0][][] */ 117,34,-13,-35,35,-114,27,127, 
  /* [36][0][][] */ -33,-48,73,-96,-32,-22,78,-127, 
  /* [37][0][][] */ 77,-64,65,47,112,-5,35,-127, 
  /* [38][0][][] */ 71,127,9,-39,-28,20,34,87, 
  /* [39][0][][] */ 31,9,-75,70,-14,-58,-99,127, 
  /* [40][0][][] */ -7,-34,-2,-41,27,-127,17,53, 
  /* [41][0][][] */ -41,53,-123,-65,92,127,70,-117, 
  /* [42][0][][] */ 30,-47,-29,15,72,127,31,54, 
  /* [43][0][][] */ -5,37,-20,24,-127,-74,52,-47, 
  /* [44][0][][] */ -127,-47,-10,-37,57,56,-93,-63, 
  /* [45][0][][] */ -64,52,-61,19,28,3,-65,127, 
  /* [46][0][][] */ -37,60,127,-12,-60,-47,-60,49, 
  /* [47][0][][] */ -117,-80,-48,-34,100,127,-39,53, 
};
const TfArray<48, float> quant25_scale = { 48, { 0.0026251201052218676, 0.0017221791204065084, 0.0020799082703888416, 0.0033622547052800655, 0.0053311125375330448, 0.0011469018645584583, 0.0029351622797548771, 0.0026491482276469469, 0.0011379516217857599, 0.0041448459960520267, 0.0019253072096034884, 0.0029290856327861547, 0.0019382569007575512, 0.0033531750086694956, 0.0042216884903609753, 0.0022346361074596643, 0.0027139866724610329, 0.0012132324045524001, 0.0015790301840752363, 0.0034390157088637352, 0.0033231482375413179, 0.0029393683653324842, 0.0029667525086551905, 0.0026650226209312677, 0.0035819876939058304, 0.0016877433517947793, 0.0028849521186202765, 0.0028067089151591063, 0.0032190107740461826, 0.0016764203319326043, 0.0012204457307234406, 0.0023182176519185305, 0.0036523195449262857, 0.0032454233150929213, 0.0026604896411299706, 0.0027068310882896185, 0.002009841613471508, 0.0012218332849442959, 0.003636055625975132, 0.0023351339623332024, 0.0014889225130900741, 0.0012060446897521615, 0.0039660558104515076, 0.0032183509320020676, 0.0035829625558108091, 0.0023976312950253487, 0.00075395090971142054, 0.0022254996001720428, } };
const TfLiteAffineQuantization quant25 = { (TfLiteFloatArray*)&quant25_scale, (TfLiteIntArray*)&g0::quant6_zero, 0 };
const MODEL_SECTION(EI_MODEL_SECTION) ALIGN(16) int32_t tensor_data26[8] = { 11771, 16011, 4448, 6919, 1148, -12283, 6480, -6879, };
const TfArray<8, float> quant26_scale = { 8, { 0.0001379126770189032, 0.00011052305490011349, 0.00013689063780475408, 0.00020625462639145553, 0.00011877513315994292, 0.00012678308121394366, 7.3406954470556229e-05, 0.000119875228847377, } };
const TfLiteAffineQuantization quant26 = { (TfLiteFloatArray*)&quant26_scale, (TfLiteIntArray*)&g0::quant8_zero, 0 };
const MODEL_SECTION(EI_MODEL_SECTION) ALIGN(16) int8_t tensor_data27[8*1*1*48] = { 
  /* [0][0][][] */ 31,-59,97,63,29,-43,12,15,-8,58,-27,16,-48,-90,48,-5,-111,65,-39,56,-45,78,6,-24,-2,-50,55,-31,-20,20,-31,100,-64,-9,-29,-74,-59,-42,-39,-11,-8,56,-127,7,52,12,17,47, 
  /* [1][0][][] */ -48,-34,56,-9,-34,29,-36,-38,52,-12,0,-35,-22,23,-8,18,10,20,17,-3,-58,-39,-68,-29,26,-34,-25,-29,26,-77,-9,-127,-11,-62,-71,-72,-42,-92,-14,23,38,-20,81,-105,-61,-10,-26,-2, 
  /* [2][0][][] */ -63,87,-11,28,9,17,14,-33,65,-40,65,79,96,5,37,-55,89,-5,7,17,-17,14,15,127,-111,-52,2,-24,0,81,-23,-87,-29,8,9,-72,-19,11,-37,-17,83,-73,14,-3,19,-115,-5,-8, 
  /* [3][0][][] */ 65,-35,-77,42,87,-88,-5,-123,-43,-18,-60,-83,-24,127,-9,9,-49,-21,-68,-54,26,88,-5,-53,112,33,57,-72,25,-103,45,-66,43,68,113,-87,-46,17,-35,52,29,85,-82,31,-11,28,1,35, 
  /* [4][0][][] */ -62,45,-31,68,95,-29,33,-49,-38,-9,-61,39,-55,-14,3,-57,19,64,-29,-37,-43,33,-74,-55,22,-5,18,-40,42,-42,-28,71,-1,80,-69,-78,-63,-68,-44,2,78,-54,127,25,7,92,-58,-53, 
  /* [5][0][][] */ 62,-6,76,-6,-7,14,56,27,127,0,73,2,78,61,16,-70,-4,30,27,-43,-58,-69,18,47,15,-12,25,42,-42,-30,15,-23,-19,46,-15,58,46,-3,-29,-46,-10,67,35,44,-18,-1,73,9, 
  /* [6][0][][] */ -15,-72,-17,11,34,0,-9,20,-55,-14,104,55,90,58,-24,50,118,-127,-25,-10,-16,-31,-100,42,-83,58,-45,-2,-17,-55,68,-55,82,25,-67,-18,-36,15,48,15,79,-70,-10,-83,-108,39,-52,26, 
  /* [7][0][][] */ -23,-15,-54,-40,16,111,-4,-3,-8,-52,-127,-105,44,45,-55,-47,-35,23,107,23,-12,-81,56,-8,118,-25,-78,91,-35,-17,-22,-79,-42,74,54,121,103,-57,-22,-42,-23,-6,32,-16,-5,-25,2,-50, 
};
const TfArray<8, float> quant27_scale = { 8, { 0.0058612888678908348, 0.0046972297132015228, 0.0058178519830107689, 0.0087658213451504707, 0.005047942977398634, 0.0053882808424532413, 0.0031197955831885338, 0.0050946972332894802, } };
const TfLiteAffineQuantization quant27 = { (TfLiteFloatArray*)&quant27_scale, (TfLiteIntArray*)&g0::quant8_zero, 0 };
const MODEL_SECTION(EI_MODEL_SECTION) ALIGN(16) int32_t tensor_data28[48] = { 152, 591, 736, -48, 79, 9536, 138, -3803, -6232, -1055, -8139, 452, -2574, -6968, -1001, 399, -6944, 19643, -2865, 1399, -909, 422, -240, 404, 19168, 828, 426, -656, 415, -865, -704, -8198, -600, 13039, -494, 5676, -1682, -3556, -2049, -1032, -5850, -775, 2599, 5728, 570, 7875, -815, -3722, };
const TfArray<48, float> quant28_scale = { 48, { 0.00038204211159609258, 0.00015945491031743586, 0.00058747339062392712, 0.00017575116362422705, 0.00013357364514376968, 0.00029969378374516964, 0.00027190530090592802, 0.00016860460164025426, 0.0003451313532423228, 0.00013635774666909128, 0.00036975982948206365, 0.00018596422160044312, 0.00017076267977245152, 0.00016845304344315082, 0.00017623239546082914, 0.00054038182133808732, 0.00029087060829624534, 6.6680404415819794e-05, 0.00013115437468513846, 0.0004551541933324188, 0.00033046471071429551, 0.00038082504761405289, 0.00019980540673714131, 0.00085990375373512506, 0.00026094770873896778, 0.00034688561572693288, 0.00021702535741496831, 0.00020082847913727164, 0.00033855388755910099, 0.00017973287322092801, 0.00046464867773465812, 0.00055860512657091022, 0.00044159547542221844, 0.00012516901188064367, 0.00048136230907402933, 0.00020584995218086988, 0.00020637284615077078, 7.3106479248963296e-05, 0.00055075075943022966, 0.00090640428243204951, 0.00017160631250590086, 0.00080963131040334702, 0.00067464401945471764, 0.00016635328938718885, 0.00022822209575679153, 0.00012645163224078715, 0.00026339260512031615, 0.00028486750670708716, } };
const TfLiteAffineQuantization quant28 = { (TfLiteFloatArray*)&quant28_scale, (TfLiteIntArray*)&g0::quant6_zero, 0 };
const MODEL_SECTION(EI_MODEL_SECTION) ALIGN(16) int8_t tensor_data29[1*3*3*48] = { 
  /* [0][0][][] */ -6,-39,41,-18,127,-10,-16,-9,-29,50,-5,13,57,23,127,-40,13,-50,-52,-21,-33,-23,-69,17,-121,44,21,-40,-19,38,-14,-2,-36,36,22,3,82,67,35,-8,78,18,-10,0,-99,-14,-39,-30, 7,-89,-69,-22,-39,-14,41,19,18,-4,56,127,-15,51,-59,127,-17,-107,27,-58,-68,-127,-89,70,-127,-84,23,106,3,49,127,9,-127,-123,-42,43,127,-83,119,12,85,-15,-20,-11,-55,-21,72,8, 6,-16,-15,127,44,3,-78,-6,-25,-38,-19,-18,41,-6,-55,-47,21,-19,-13,-19,1,-6,-36,13,-55,-65,-28,28,-11,31,-86,-8,16,73,20,26,11,93,-119,3,32,-9,-6,25,-127,-8,-51,49, 
  /* [0][1][][] */ -117,-58,127,0,-30,-34,78,27,23,102,19,14,35,29,100,27,38,-127,85,37,69,-10,54,-39,-7,-26,31,-49,20,59,34,59,33,-104,2,127,15,44,-39,-115,44,95,-15,-85,31,-93,-55,27, 127,-54,-71,-70,6,-127,127,127,127,15,127,-45,-127,13,-34,-44,127,-112,127,127,127,78,127,-127,13,-26,100,-25,127,127,-116,127,33,-127,127,-92,-50,127,-91,127,-127,-127,127,-127,97,-127,127,-106, -19,-94,10,54,-27,-12,-45,13,-13,-127,-24,48,66,9,-47,42,22,-23,-13,10,1,-26,34,-23,0,3,-127,61,-74,10,79,20,-12,-85,-18,-34,67,23,127,16,36,52,-41,1,50,-22,-59,127, 
  /* [0][2][][] */ -9,119,26,-28,76,18,-50,-9,-18,17,0,-5,43,25,71,6,-23,-3,-8,-47,-17,11,-5,18,-21,-17,22,-1,-52,-114,-10,-7,-5,33,-19,39,-49,46,17,107,10,23,-1,6,24,9,-12,-29, 1,93,-46,1,22,-30,-18,36,42,14,21,-42,29,127,-71,-78,-10,-25,120,-81,-43,71,-6,58,76,127,-4,127,-64,-116,-14,-8,103,-114,-82,5,-56,-33,-20,-123,49,-20,-55,73,50,35,22,22, 9,127,-17,10,19,8,-64,-1,-15,-15,0,-15,57,0,-57,-4,-13,3,-44,-28,-2,4,-12,-2,-46,25,-47,17,36,-70,19,1,8,52,0,-13,-31,70,17,5,-33,-6,2,-20,11,9,-4,46, 
};
const TfArray<48, float> quant29_scale = { 48, { 0.016236789524555206, 0.0067768334411084652, 0.02496761828660965, 0.0074694245122373104, 0.0056768800131976604, 0.012736985459923744, 0.011555975303053856, 0.0071656955406069756, 0.014668081887066364, 0.0057952040806412697, 0.015714792534708977, 0.0079034790396690369, 0.0072574135847389698, 0.0071592545136809349, 0.0074898763559758663, 0.022966226562857628, 0.012362000532448292, 0.0028339172713458538, 0.0055740606039762497, 0.01934405229985714, 0.014044750481843948, 0.016185063868761063, 0.0084917293861508369, 0.036545909941196442, 0.011090277694165707, 0.014742637984454632, 0.0092235775664448738, 0.0085352100431919098, 0.014388539828360081, 0.0076386467553675175, 0.019747568294405937, 0.023740716278553009, 0.018767807632684708, 0.0053196828812360764, 0.020457897335290909, 0.0087486226111650467, 0.0087708458304405212, 0.0031070252880454063, 0.023406907916069031, 0.038522180169820786, 0.0072932681068778038, 0.034409329295158386, 0.028672371059656143, 0.0070700147189199924, 0.0096994386985898018, 0.0053741941228508949, 0.011194185353815556, 0.012106869369745255, } };
const TfLiteAffineQuantization quant29 = { (TfLiteFloatArray*)&quant29_scale, (TfLiteIntArray*)&g0::quant6_zero, 3 };
const MODEL_SECTION(EI_MODEL_SECTION) ALIGN(16) int32_t tensor_data30[48] = { 6875, 2185, 37600, -2354, -952, 7071, -717, 979, 2342, -15, 6291, 595, 2244, 4442, 2601, 3772, 1959, 2570, -704, 4844, 1463, 289, 1271, 10809, 39630, 4520, 4056, -1645, -131, 5810, 6348, 12491, 10456, 4567, 5643, -1287, 255, 2150, 9736, 6809, 373, 13968, 12877, 3801, 8294, 1605, 4294, 660, };
const TfArray<48, float> quant30_scale = { 48, { 0.00012921848974656314, 0.00024622873752377927, 3.536714575602673e-05, 0.00023327565577346832, 0.00034839566797018051, 0.00015276836347766221, 0.00021425141312647611, 0.0005716569721698761, 0.00025679767713882029, 0.00027777464129030704, 0.00013760731962975115, 0.00032182788709178567, 0.00023772096028551459, 0.0001899848721222952, 0.00021579118038062006, 0.00021612759155686945, 0.0002395098126726225, 0.00019358571444172412, 0.00037402307498268783, 0.00018106958304997534, 0.00025913509307429194, 0.00031270671752281487, 0.00025267380988225341, 9.2110240075271577e-05, 4.0481118048774078e-05, 0.00019454238645266742, 0.00020450381271075457, 0.00026271436945535243, 0.00057981448480859399, 0.00014976896636653692, 0.00014186672342475504, 8.2164013292640448e-05, 9.415838576387614e-05, 0.00019034159777220339, 0.00015664348029531538, 0.00019453198183327913, 0.00032094505149871111, 0.00019002612680196762, 9.8265103588346392e-05, 0.00013405784557107836, 0.00025580654619261622, 7.6176482252776623e-05, 8.9745837613008916e-05, 0.00019161560339853168, 0.00011863336112583056, 0.00038278859574347734, 0.0001841329358285293, 0.00026815285673364997, } };
const TfLiteAffineQuantization quant30 = { (TfLiteFloatArray*)&quant30_scale, (TfLiteIntArray*)&g0::quant6_zero, 0 };
const MODEL_SECTION(EI_MODEL_SECTION) ALIGN(16) int8_t tensor_data31[48*1*1*8] = { 
  /* [0][0][][] */ -19,30,19,-127,-102,10,24,121, 
  /* [1][0][][] */ 99,4,12,8,-97,29,127,9, 
  /* [2][0][][] */ 5,106,-34,-2,-31,70,-19,-127, 
  /* [3][0][][] */ 46,-69,-103,106,-127,-28,-1,-24, 
  /* [4][0][][] */ 35,-66,37,-11,-127,-7,58,31, 
  /* [5][0][][] */ -17,51,-6,-92,-127,-5,-35,13, 
  /* [6][0][][] */ 59,-21,48,28,127,-27,-21,-113, 
  /* [7][0][][] */ 19,38,29,127,28,-4,-5,21, 
  /* [8][0][][] */ 28,24,21,-46,36,127,15,-34, 
  /* [9][0][][] */ 108,45,-27,33,-65,-20,127,48, 
  /* [10][0][][] */ 6,64,-68,-29,9,127,84,-59, 
  /* [11][0][][] */ -13,-37,-127,96,-62,33,-15,68, 
  /* [12][0][][] */ -93,-84,51,48,34,-127,-35,9, 
  /* [13][0][][] */ 38,32,27,49,-55,127,16,-42, 
  /* [14][0][][] */ 3,-105,-15,-4,-55,-83,-127,91, 
  /* [15][0][][] */ -89,36,-3,8,84,-9,-127,-31, 
  /* [16][0][][] */ 95,69,-88,-127,69,109,116,32, 
  /* [17][0][][] */ -106,127,-121,51,-10,-36,28,-123, 
  /* [18][0][][] */ 37,-2,-90,127,-12,-39,-36,-65, 
  /* [19][0][][] */ 127,28,6,21,-54,18,116,49, 
  /* [20][0][][] */ 42,-67,-90,127,47,-27,-25,-70, 
  /* [21][0][][] */ 31,61,127,-108,54,-28,17,-97, 
  /* [22][0][][] */ -86,-17,-127,52,-29,48,6,111, 
  /* [23][0][][] */ 67,24,13,37,-111,127,64,-24, 
  /* [24][0][][] */ -15,-4,-127,82,-33,27,41,68, 
  /* [25][0][][] */ 51,-45,-57,127,38,-12,-26,-12, 
  /* [26][0][][] */ -78,29,127,-94,-22,42,70,-12, 
  /* [27][0][][] */ -64,85,127,-6,30,-15,80,18, 
  /* [28][0][][] */ -49,-82,28,-127,-16,19,7,-25, 
  /* [29][0][][] */ -65,-79,-20,78,-1,-127,-7,51, 
  /* [30][0][][] */ -127,47,102,-24,23,42,60,18, 
  /* [31][0][][] */ -59,49,90,-127,-46,17,32,65, 
  /* [32][0][][] */ -66,63,102,-95,-7,-8,18,127, 
  /* [33][0][][] */ 0,120,-46,51,20,18,-127,-21, 
  /* [34][0][][] */ 92,25,127,-103,-80,-98,53,-50, 
  /* [35][0][][] */ 90,2,32,86,89,-57,27,-127, 
  /* [36][0][][] */ 26,74,127,-107,30,-17,47,-111, 
  /* [37][0][][] */ -59,-58,113,73,1,-127,95,-17, 
  /* [38][0][][] */ 82,-4,76,43,-20,-57,127,18, 
  /* [39][0][][] */ 46,-73,-27,13,-127,7,69,77, 
  /* [40][0][][] */ -47,36,-127,90,-56,53,-79,85, 
  /* [41][0][][] */ -109,-27,-59,8,127,8,-87,11, 
  /* [42][0][][] */ -77,57,-34,-40,127,37,-95,-52, 
  /* [43][0][][] */ 127,112,-34,121,-9,-109,38,86, 
  /* [44][0][][] */ -2,36,102,3,43,-127,6,-34, 
  /* [45][0][][] */ -5,-82,127,85,-31,-30,-118,18, 
  /* [46][0][][] */ 59,-126,-127,54,-81,32,-18,-4, 
  /* [47][0][][] */ -121,-31,45,-8,84,35,-127,-38, 
};
const TfArray<48, float> quant31_scale = { 48, { 0.0021972553804516792, 0.0041869198903441429, 0.00060138956177979708, 0.0039666630327701569, 0.0059241852723062038, 0.0025977019686251879, 0.0036431711632758379, 0.0097205629572272301, 0.0043666358105838299, 0.0047233323566615582, 0.002339900704100728, 0.0054724216461181641, 0.0040422519668936729, 0.0032305384520441294, 0.0036693536676466465, 0.0036750740837305784, 0.0040726698935031891, 0.0032917677890509367, 0.0063599585555493832, 0.0030789412558078766, 0.0044063818641006947, 0.0053173238411545753, 0.004296512808650732, 0.0015662597725167871, 0.00068834854755550623, 0.0033080352004617453, 0.0034774213563650846, 0.0044672442600131035, 0.0098592741414904594, 0.0025466997176408768, 0.0024123284965753555, 0.0013971322914585471, 0.0016010869294404984, 0.0032366043888032436, 0.0026635951362550259, 0.0033078582491725683, 0.0054574101231992245, 0.0032312399707734585, 0.0016709183109924197, 0.0022795447148382664, 0.0043497825972735882, 0.0012953191762790084, 0.0015260550426319242, 0.0032582676503807306, 0.0020172640215605497, 0.0065090092830359936, 0.0031310310587286949, 0.0045597213320434093, } };
const TfLiteAffineQuantization quant31 = { (TfLiteFloatArray*)&quant31_scale, (TfLiteIntArray*)&g0::quant6_zero, 0 };
const MODEL_SECTION(EI_MODEL_SECTION) ALIGN(16) int32_t tensor_data32[8] = { -10684, 173, -13374, 744, 1421, -3648, 11376, 1852, };
const TfArray<8, float> quant32_scale = { 8, { 0.00016691094788257033, 0.00011932823690585792, 0.00011375513713574037, 5.9673351643141359e-05, 0.00020961496920790523, 0.00015774441999383271, 0.00012663529196288437, 0.00012474932009354234, } };
const TfLiteAffineQuantization quant32 = { (TfLiteFloatArray*)&quant32_scale, (TfLiteIntArray*)&g0::quant8_zero, 0 };
const MODEL_SECTION(EI_MODEL_SECTION) ALIGN(16) int8_t tensor_data33[8*1*1*48] = { 
  /* [0][0][][] */ 49,103,-34,70,-3,-5,-17,11,61,-59,2,-30,9,11,-31,-52,0,-18,27,8,-52,-30,-32,2,15,9,28,-6,16,12,-24,24,-60,18,106,-127,-26,16,-13,109,-33,11,9,-5,-16,40,15,-44, 
  /* [1][0][][] */ 3,-43,36,58,-11,-11,-12,-32,48,-50,91,43,19,13,-49,-83,127,45,21,12,-75,34,38,-10,-48,-98,-37,-47,-18,-68,45,-35,-7,-26,-29,14,4,-20,94,-51,-10,37,-54,40,82,65,25,55, 
  /* [2][0][][] */ 67,-25,-17,-15,106,102,59,74,-26,-8,1,-32,-9,44,64,33,-21,-40,54,-71,-38,-47,-42,51,-92,-101,116,12,60,-62,-64,20,-127,82,96,7,-12,-2,-11,19,26,59,10,-62,-24,21,49,-44, 
  /* [3][0][][] */ 81,-30,11,-13,113,127,24,50,-35,-25,30,56,-125,39,63,21,9,14,78,-99,-90,20,36,86,10,-22,54,37,44,-57,6,-9,-118,65,-60,-108,25,-36,68,-48,52,-96,-109,-20,-58,39,-16,63, 
  /* [4][0][][] */ 43,40,-32,-38,-11,-13,-21,-19,7,-8,-11,-12,-31,-23,59,49,-42,-15,-34,42,26,-12,-14,9,-49,-40,-3,56,-17,8,-20,28,-23,-15,33,-127,-4,28,10,54,10,-10,-1,-22,38,1,94,-21, 
  /* [5][0][][] */ 62,55,-87,44,3,7,-5,22,-76,-51,-52,-21,32,22,42,24,32,-54,45,127,-65,-45,-53,49,28,-21,-38,66,27,37,-48,6,-3,2,-52,0,-8,17,-25,63,11,75,-8,-39,125,23,17,-54, 
  /* [6][0][][] */ -33,-72,20,-50,-46,-39,-80,-71,-30,-62,-116,41,-56,-53,96,83,-127,5,25,-27,13,57,69,7,-16,-11,-63,81,-76,-37,41,75,11,-50,86,33,23,42,-14,-85,-17,-61,-35,13,-48,-17,-20,63, 
  /* [7][0][][] */ 80,17,-18,39,13,12,11,8,86,-7,-16,-19,59,7,-16,-27,-59,-9,-33,-5,1,-21,-25,-31,69,-127,23,1,2,101,-18,14,-75,30,-61,-46,-15,24,28,20,22,69,-42,-15,-47,28,31,-24, 
};
const TfArray<8, float> quant33_scale = { 8, { 0.0070937150157988071, 0.0050714500248432159, 0.0048345932736992836, 0.0025361173320561647, 0.0089086359366774559, 0.0067041376605629921, 0.0053820000030100346, 0.0053018461912870407, } };
const TfLiteAffineQuantization quant33 = { (TfLiteFloatArray*)&quant33_scale, (TfLiteIntArray*)&g0::quant8_zero, 0 };
const MODEL_SECTION(EI_MODEL_SECTION) ALIGN(16) int32_t tensor_data34[48] = { 883, 7965, 749, 122, -792, -1283, 7372, 6796, 1317, -6471, 116, -272, 6464, 4066, 20098, 15017, -1249, -2851, 3463, 6622, 15797, 1150, -1073, 234, 6780, 994, 4574, 18080, 6135, 11966, -598, 2569, 500, -5406, -1951, 1265, 1526, 249, 292, 3482, 5036, 4094, -5685, 1617, 4196, -239, 11015, -3184, };
const TfArray<48, float> quant34_scale = { 48, { 9.5639043138362467e-05, 0.00012882868759334087, 0.00064686883706599474, 6.9878798967693001e-05, 0.00061826081946492195, 0.00078485801350325346, 0.00013333966489881277, 0.00015762225666549057, 5.8936599089065567e-05, 0.00022744578018318862, 0.00053806364303454757, 0.0002762078947853297, 0.00020344796939752996, 0.00016348680946975946, 6.2996528868097812e-05, 5.6550547014921904e-05, 0.0001223123399540782, 0.0005307862302288413, 6.2458966567646712e-05, 7.4113151640631258e-05, 6.6512970079202205e-05, 0.00075585022568702698, 0.00096956605557352304, 0.00021962499886285514, 4.1497136407997459e-05, 0.00014736737648490816, 9.227648115484044e-05, 0.00012863348820246756, 0.00014785728126298636, 0.00010314860992366448, 0.0004747806815430522, 0.00025032559642568231, 7.268891204148531e-05, 0.00025268783792853355, 7.2979404649231583e-05, 6.7532542743720114e-05, 0.00035801855847239494, 0.00029194654780440032, 0.00013473216677084565, 0.00019215194333810359, 9.3656562967225909e-05, 0.00023377867182716727, 0.00011608208296820521, 0.00037272591725923121, 8.0421945312991738e-05, 0.00033461672137491405, 8.7061605881899595e-05, 0.00053729361388832331, } };
const TfLiteAffineQuantization quant34 = { (TfLiteFloatArray*)&quant34_scale, (TfLiteIntArray*)&g0::quant6_zero, 0 };
const MODEL_SECTION(EI_MODEL_SECTION) ALIGN(16) int8_t tensor_data35[1*3*3*48] = { 
  /* [0][0][][] */ -19,-86,-83,90,-86,9,-86,-81,66,75,116,-45,-4,6,-68,-54,95,-76,35,-45,-23,-111,-28,-79,72,83,5,-112,5,-51,58,65,36,65,66,24,79,88,24,11,-127,-10,2,32,-77,66,-23,-93, 103,-7,38,79,-126,46,-71,11,116,103,89,68,-9,-71,-127,-105,112,-30,115,-98,-111,124,127,34,127,94,53,-103,-79,-46,-97,105,77,127,95,92,-19,74,67,-73,-105,-87,9,-55,-88,72,-52,112, 118,-2,50,49,-77,15,-33,-16,38,85,-1,-35,-71,2,-33,-55,40,84,45,-26,-63,-31,-75,57,41,21,35,-34,-7,-24,23,35,25,97,20,56,-10,17,41,-9,-52,-1,-2,7,-51,18,-13,4, 
  /* [0][1][][] */ 33,-127,106,99,92,-70,-127,-127,122,79,114,-52,11,-2,-91,-83,110,127,50,-123,-24,109,32,-127,93,111,114,-127,-1,-110,-67,108,101,4,102,61,29,124,49,-3,-10,-12,71,86,-98,111,-111,127, 127,-8,3,127,127,-127,-111,2,127,127,127,76,-36,-127,-108,-127,127,64,127,-127,-127,-127,-101,46,121,127,127,-123,-127,-127,127,127,127,12,127,127,-7,127,127,-127,-7,-127,93,-84,-121,127,-127,-119, 99,-7,-127,67,92,-58,-46,-15,30,76,15,-12,-127,-2,-25,-45,49,-92,70,-46,-68,2,69,54,64,52,1,-56,-22,-77,-31,39,40,4,33,68,-3,13,73,-5,-24,-7,32,-11,-56,48,-37,25, 
  /* [0][2][][] */ 43,-79,6,27,2,72,-66,-80,35,1,15,58,12,11,-26,-9,25,-36,19,-80,1,-2,14,-80,22,24,63,-14,8,-97,15,31,92,-71,61,30,-127,42,0,-2,35,2,97,-127,-107,33,-69,0, 43,10,5,60,13,99,-45,0,23,47,-3,-127,-21,-90,-30,-20,50,-6,49,-105,-22,-13,-23,23,32,51,65,-23,-81,-106,-21,34,83,-70,60,32,17,52,68,-53,119,-70,127,100,-127,20,-109,31, -37,-10,-11,27,-15,43,-28,-5,9,16,-49,51,-66,-5,0,0,11,27,29,-20,-17,15,14,25,23,33,22,5,-5,-63,13,3,18,-45,19,13,6,-8,43,13,67,3,39,-13,-38,26,-29,7, 
};
const TfArray<48, float> quant35_scale = { 48, { 0.004064659122377634, 0.0054752188734710217, 0.027491925284266472, 0.0029698489233851433, 0.026276083663105965, 0.033356465399265289, 0.0056669353507459164, 0.0066989455372095108, 0.0025048053357750177, 0.0096664456650614738, 0.022867703810334206, 0.011738834902644157, 0.0086465384811162949, 0.0069481893442571163, 0.0026773524004966021, 0.0024033982772380114, 0.0051982742734253407, 0.022558415308594704, 0.0026545061264187098, 0.0031498088501393795, 0.0028268012683838606, 0.032123632729053497, 0.041206557303667068, 0.0093340622261166573, 0.0017636282136663795, 0.0062631131149828434, 0.0039217504672706127, 0.0054669231176376343, 0.0062839342281222343, 0.0043838159181177616, 0.020178178325295448, 0.010638837702572346, 0.0030892787035554647, 0.010739232413470745, 0.0031016247812658548, 0.002870132913812995, 0.015215788967907429, 0.012407728470861912, 0.0057261167094111443, 0.0081664575263857841, 0.0039804037660360336, 0.0099355932325124741, 0.004933488555252552, 0.01584085077047348, 0.0034179326612502337, 0.014221210032701492, 0.0037001180462539196, 0.022834978997707367, } };
const TfLiteAffineQuantization quant35 = { (TfLiteFloatArray*)&quant35_scale, (TfLiteIntArray*)&g0::quant6_zero, 3 };
const MODEL_SECTION(EI_MODEL_SECTION) ALIGN(16) int32_t tensor_data36[48] = { 10335, 4534, 21998, 2326, 3766, 4582, -3947, 4259, 2902, -3000, -3531, 4871, -3158, -4433, 7541, 1711, -1819, 2482, -2038, 2932, -172, 4014, -383, -2936, -314, -4937, 2621, -3548, 3765, 7447, -274, 672, 7496, 10803, 8108, 4092, 4994, -4349, 1190, 4487, -497, -4097, 4061, 1457, 1080, -6280, -11312, 1487, };
const TfArray<48, float> quant36_scale = { 48, { 0.00044811147381551564, 0.00062929996056482196, 5.989189594401978e-05, 0.00078224571188911796, 0.00047714432002976537, 0.00037201179657131433, 0.001675433712080121, 0.0011309764813631773, 0.0010179992532357574, 0.00059062644140794873, 0.00015142741904128343, 0.00042908129398711026, 0.00049012451199814677, 0.0011335922172293067, 0.00062138575594872236, 0.0016834024572744966, 0.00099358742590993643, 0.00029966351576149464, 0.0011349989799782634, 0.0016743007581681013, 0.00080612307647243142, 0.0004237227258272469, 0.00015276228077709675, 0.00048009803867898881, 0.0012509307125583291, 0.00088829139713197947, 0.00088312540901824832, 0.00039866717997938395, 0.0012015218380838633, 0.00064138858579099178, 0.00030124830664135516, 0.00060343794757500291, 0.00072755297878757119, 0.0002711669949349016, 0.00036805190029554069, 0.00036720611387863755, 0.00057250855024904013, 0.0013974172761663795, 0.00049822241999208927, 0.00065084639936685562, 0.0014153880765661597, 0.00066128553589805961, 0.00072885025292634964, 0.00022395250562112778, 0.0015398768009617925, 0.00058257271302863955, 0.0006084779161028564, 0.00048794012400321662, } };
const TfLiteAffineQuantization quant36 = { (TfLiteFloatArray*)&quant36_scale, (TfLiteIntArray*)&g0::quant6_zero, 0 };
const MODEL_SECTION(EI_MODEL_SECTION) ALIGN(16) int8_t tensor_data37[48*1*1*8] = { 
  /* [0][0][][] */ -88,-101,17,-127,-48,-9,-5,-1, 
  /* [1][0][][] */ -127,-13,99,0,-48,21,5,13, 
  /* [2][0][][] */ 17,-7,27,127,21,-28,-20,-3, 
  /* [3][0][][] */ -104,-70,-32,-20,44,127,-53,-33, 
  /* [4][0][][] */ -6,-28,-11,-1,-13,13,-127,-62, 
  /* [5][0][][] */ -4,-33,-18,-1,-13,13,-127,-68, 
  /* [6][0][][] */ 127,6,18,-13,-69,16,5,-7, 
  /* [7][0][][] */ -127,-23,-14,1,69,8,1,5, 
  /* [8][0][][] */ 25,38,-15,-15,-29,-127,35,23, 
  /* [9][0][][] */ 81,23,-14,-4,-21,-2,-4,127, 
  /* [10][0][][] */ 127,-19,-120,12,-82,-7,45,126, 
  /* [11][0][][] */ -127,105,5,-34,82,-60,4,25, 
  /* [12][0][][] */ 127,-32,-102,10,52,-4,-4,-24, 
  /* [13][0][][] */ 127,15,16,-19,-29,21,9,-16, 
  /* [14][0][][] */ -127,-80,99,-24,61,-8,-52,-108, 
  /* [15][0][][] */ 32,73,0,-3,-8,-127,-26,11, 
  /* [16][0][][] */ -10,-70,11,1,12,127,12,6, 
  /* [17][0][][] */ 35,-120,-79,-13,-32,127,-56,-18, 
  /* [18][0][][] */ 32,-11,-12,-10,-20,28,127,-13, 
  /* [19][0][][] */ -2,23,-3,-127,-8,35,-5,-11, 
  /* [20][0][][] */ -82,-41,81,21,64,113,-14,-127, 
  /* [21][0][][] */ -20,-7,33,-20,-21,17,-127,-79, 
  /* [22][0][][] */ 70,-8,13,127,-16,-11,53,41, 
  /* [23][0][][] */ 127,-3,-116,-7,34,-28,20,-2, 
  /* [24][0][][] */ -28,17,28,35,14,2,-127,-82, 
  /* [25][0][][] */ 127,10,-84,11,15,-4,8,27, 
  /* [26][0][][] */ 0,52,-36,-127,-30,25,-5,4, 
  /* [27][0][][] */ 127,12,-108,-1,-108,51,6,92, 
  /* [28][0][][] */ -127,-15,-19,11,52,6,-2,29, 
  /* [29][0][][] */ -6,-125,-16,-127,-7,30,-12,-23, 
  /* [30][0][][] */ -9,92,127,52,38,-94,113,43, 
  /* [31][0][][] */ -78,-3,-127,46,5,-28,90,108, 
  /* [32][0][][] */ -6,-126,4,-127,-12,15,-9,-18, 
  /* [33][0][][] */ 15,-124,-5,-127,4,4,-7,-19, 
  /* [34][0][][] */ -23,-42,24,-97,35,-53,127,75, 
  /* [35][0][][] */ -127,15,55,15,-123,-24,45,97, 
  /* [36][0][][] */ -127,16,107,-3,-38,21,-32,38, 
  /* [37][0][][] */ 127,12,-6,-9,-75,18,3,14, 
  /* [38][0][][] */ -78,-4,78,36,55,-53,40,127, 
  /* [39][0][][] */ -127,-2,74,-3,-69,12,-7,6, 
  /* [40][0][][] */ -12,28,43,-14,24,-12,127,51, 
  /* [41][0][][] */ 127,-14,-81,0,53,11,4,-5, 
  /* [42][0][][] */ -13,-127,30,-8,14,7,-3,-18, 
  /* [43][0][][] */ 7,127,119,-3,56,-102,89,0, 
  /* [44][0][][] */ 0,-14,2,102,4,-127,-7,-4, 
  /* [45][0][][] */ 127,-32,39,-9,-64,102,9,1, 
  /* [46][0][][] */ 15,117,-7,100,-2,127,32,36, 
  /* [47][0][][] */ -14,41,11,-21,21,-28,127,69, 
};
const TfArray<48, float> quant37_scale = { 48, { 0.0055748051963746548, 0.0078289108350872993, 0.00074509507976472378, 0.0097316578030586243, 0.0059359930455684662, 0.0046280743554234505, 0.020843511447310448, 0.014070101082324982, 0.012664588168263435, 0.007347786333411932, 0.0018838579999282956, 0.0053380569443106651, 0.0060974755324423313, 0.014102642424404621, 0.0077304523438215256, 0.020942647010087967, 0.012360889464616776, 0.0037280137185007334, 0.014120142906904221, 0.020829416811466217, 0.010028707794845104, 0.0052713928744196892, 0.001900464529171586, 0.0059727393090724945, 0.015562410466372967, 0.0110509367659688, 0.010986668057739735, 0.0049596852622926235, 0.014947731979191303, 0.0079793008044362068, 0.0037477293517440557, 0.0075071696192026138, 0.0090512437745928764, 0.0033734980970621109, 0.0045788106508553028, 0.0045682885684072971, 0.0071223876439034939, 0.017384801059961319, 0.0061982185579836369, 0.0080969622358679771, 0.017608370631933212, 0.0082268323749303818, 0.0090673826634883881, 0.0027861183043569326, 0.019157093018293381, 0.0072475927881896496, 0.0075698704458773136, 0.006070300005376339, } };
const TfLiteAffineQuantization quant37 = { (TfLiteFloatArray*)&quant37_scale, (TfLiteIntArray*)&g0::quant6_zero, 0 };
const MODEL_SECTION(EI_MODEL_SECTION) ALIGN(16) int32_t tensor_data38[8] = { 3683, -4492, -342, 3258, 2117, 677, -2898, 2184, };
const TfArray<8, float> quant38_scale = { 8, { 6.7947185016237199e-05, 0.00012439186684787273, 8.3740291302092373e-05, 5.8161582273896784e-05, 0.00013133585161995143, 0.00018910538346972317, 9.7516553068999201e-05, 0.0001712166122160852, } };
const TfLiteAffineQuantization quant38 = { (TfLiteFloatArray*)&quant38_scale, (TfLiteIntArray*)&g0::quant8_zero, 0 };
const MODEL_SECTION(EI_MODEL_SECTION) ALIGN(16) int8_t tensor_data39[8*1*1*8] = { 
  /* [0][0][][] */ -22,-5,-44,-38,-18,39,-127,-5, 
  /* [1][0][][] */ 17,93,-3,127,10,-4,-9,-35, 
  /* [2][0][][] */ 127,-4,-29,-57,-65,46,101,-47, 
  /* [3][0][][] */ 13,-127,42,-87,20,-82,34,51, 
  /* [4][0][][] */ 122,-5,-60,-5,27,-6,-127,-51, 
  /* [5][0][][] */ 4,-34,4,36,3,-127,0,9, 
  /* [6][0][][] */ 127,-19,117,4,112,-27,-7,21, 
  /* [7][0][][] */ -127,0,-94,-4,-100,10,31,10, 
};
const TfArray<4, int> tensor_dimension39 = { 4, { 8,1,1,8 } };
const TfArray<8, float> quant39_scale = { 8, { 0.002887755399569869, 0.0052866539917886257, 0.0035589623730629683, 0.0024718672502785921, 0.0055817733518779278, 0.008036978542804718, 0.0041444534435868263, 0.0072767059318721294, } };
const TfLiteAffineQuantization quant39 = { (TfLiteFloatArray*)&quant39_scale, (TfLiteIntArray*)&g0::quant8_zero, 0 };
const MODEL_SECTION(EI_MODEL_SECTION) ALIGN(16) int32_t tensor_data40[8] = { -10790, 10333, 66, -14091, -1144, -13816, 104, 170, };
const TfArray<8, float> quant40_scale = { 8, { 0.00032813588040880859, 0.00042844083509407938, 0.00023312350094784051, 0.00033946929033845663, 0.0002667638473212719, 0.00036618110607378185, 0.0012819166295230389, 0.0018374250503256917, } };
const TfLiteAffineQuantization quant40 = { (TfLiteFloatArray*)&quant40_scale, (TfLiteIntArray*)&g0::quant8_zero, 0 };
const MODEL_SECTION(EI_MODEL_SECTION) ALIGN(16) int8_t tensor_data41[1*3*3*8] = { 
  /* [0][0][][] */ 2,-1,15,18,16,-1,9,31, 11,2,-39,127,-21,-2,-4,28, -5,-3,-6,19,0,2,-6,23, 
  /* [0][1][][] */ -4,-1,127,-22,127,1,-111,40, 127,-127,-109,10,-87,127,-14,-127, -33,5,22,-15,0,1,127,43, 
  /* [0][2][][] */ 2,5,7,2,9,0,16,35, 5,7,-49,-3,-13,3,-9,-102, -4,2,-5,1,-2,0,-5,41, 
};
const TfArray<4, int> tensor_dimension41 = { 4, { 1,3,3,8 } };
const TfArray<8, float> quant41_scale = { 8, { 0.013945775106549263, 0.018208734691143036, 0.0099077485501766205, 0.014427443966269493, 0.011337462812662125, 0.015562697313725948, 0.05448145791888237, 0.078090563416481018, } };
const TfLiteAffineQuantization quant41 = { (TfLiteFloatArray*)&quant41_scale, (TfLiteIntArray*)&g0::quant8_zero, 3 };
const MODEL_SECTION(EI_MODEL_SECTION) ALIGN(16) int32_t tensor_data42[8] = { 11969, 8688, 975, 16942, 1302, 5347, 64017, 2450, };
const TfArray<8, float> quant42_scale = { 8, { 0.00021932720846962184, 0.00026641157455742359, 0.00020934065105393529, 0.00015653665468562394, 0.00036319892387837172, 0.00045850002788938582, 1.5995883586583659e-05, 5.9558500652201474e-05, } };
const TfLiteAffineQuantization quant42 = { (TfLiteFloatArray*)&quant42_scale, (TfLiteIntArray*)&g0::quant8_zero, 0 };
const MODEL_SECTION(EI_MODEL_SECTION) ALIGN(16) int8_t tensor_data43[8*3*3*1] = { 
  /* [0][0][][] */ -57, 49, 8, 
  /* [0][1][][] */ -127, 120, -1, 
  /* [0][2][][] */ -43, 45, -1, 
  /* [1][0][][] */ 57, 127, 34, 
  /* [1][1][][] */ -69, -80, -44, 
  /* [1][2][][] */ 7, -42, 5, 
  /* [2][0][][] */ 30, 27, -47, 
  /* [2][1][][] */ 51, 68, -127, 
  /* [2][2][][] */ 20, 31, -59, 
  /* [3][0][][] */ 42, 53, 20, 
  /* [3][1][][] */ 53, 74, 26, 
  /* [3][2][][] */ -80, -127, -58, 
  /* [4][0][][] */ 5, -53, 48, 
  /* [4][1][][] */ 16, -127, 113, 
  /* [4][2][][] */ 5, -37, 32, 
  /* [5][0][][] */ 2, -56, 0, 
  /* [5][1][][] */ -1, 127, 2, 
  /* [5][2][][] */ 1, -75, 0, 
  /* [6][0][][] */ -8, -68, 3, 
  /* [6][1][][] */ -27, -127, -2, 
  /* [6][2][][] */ -19, -51, 10, 
  /* [7][0][][] */ 49, -127, 32, 
  /* [7][1][][] */ -16, -4, -10, 
  /* [7][2][][] */ -24, 75, -12, 
};
const TfArray<4, int> tensor_dimension43 = { 4, { 8,3,3,1 } };
const TfArray<8, float> quant43_scale = { 8, { 0.055928435176610947, 0.067934945225715637, 0.053381863981485367, 0.039916843175888062, 0.092615723609924316, 0.11691749840974808, 0.0040789502672851086, 0.015187417156994343, } };
const TfLiteAffineQuantization quant43 = { (TfLiteFloatArray*)&quant43_scale, (TfLiteIntArray*)&g0::quant8_zero, 0 };
const TfArray<4, int> tensor_dimension44 = { 4, { 1,48,48,8 } };
const TfArray<1, float> quant44_scale = { 1, { 0.023529412224888802, } };
const TfLiteAffineQuantization quant44 = { (TfLiteFloatArray*)&quant44_scale, (TfLiteIntArray*)&g0::quant0_zero, 0 };
const TfArray<1, float> quant46_scale = { 1, { 0.066881820559501648, } };
const TfArray<1, int> quant46_zero = { 1, { 30 } };
const TfLiteAffineQuantization quant46 = { (TfLiteFloatArray*)&quant46_scale, (TfLiteIntArray*)&quant46_zero, 0 };
const TfArray<1, float> quant47_scale = { 1, { 0.080381549894809723, } };
const TfArray<1, int> quant47_zero = { 1, { 4 } };
const TfLiteAffineQuantization quant47 = { (TfLiteFloatArray*)&quant47_scale, (TfLiteIntArray*)&quant47_zero, 0 };
const TfArray<4, int> tensor_dimension48 = { 4, { 1,48,48,48 } };
const TfArray<4, int> tensor_dimension49 = { 4, { 1,49,49,48 } };
const TfArray<4, int> tensor_dimension50 = { 4, { 1,24,24,48 } };
const TfArray<4, int> tensor_dimension51 = { 4, { 1,24,24,8 } };
const TfArray<1, float> quant51_scale = { 1, { 0.058809041976928711, } };
const TfArray<1, int> quant51_zero = { 1, { 2 } };
const TfLiteAffineQuantization quant51 = { (TfLiteFloatArray*)&quant51_scale, (TfLiteIntArray*)&quant51_zero, 0 };
const TfArray<1, float> quant54_scale = { 1, { 0.10075902193784714, } };
const TfArray<1, int> quant54_zero = { 1, { 7 } };
const TfLiteAffineQuantization quant54 = { (TfLiteFloatArray*)&quant54_scale, (TfLiteIntArray*)&quant54_zero, 0 };
const TfArray<1, float> quant55_scale = { 1, { 0.095996640622615814, } };
const TfArray<1, int> quant55_zero = { 1, { -6 } };
const TfLiteAffineQuantization quant55 = { (TfLiteFloatArray*)&quant55_scale, (TfLiteIntArray*)&quant55_zero, 0 };
const TfArray<4, int> tensor_dimension57 = { 4, { 1,25,25,48 } };
const TfArray<4, int> tensor_dimension58 = { 4, { 1,12,12,48 } };
const TfArray<4, int> tensor_dimension59 = { 4, { 1,12,12,8 } };
const TfArray<1, float> quant59_scale = { 1, { 0.056901201605796814, } };
const TfArray<1, int> quant59_zero = { 1, { -12 } };
const TfLiteAffineQuantization quant59 = { (TfLiteFloatArray*)&quant59_scale, (TfLiteIntArray*)&quant59_zero, 0 };
const TfArray<1, float> quant62_scale = { 1, { 0.038075044751167297, } };
const TfArray<1, int> quant62_zero = { 1, { -19 } };
const TfLiteAffineQuantization quant62 = { (TfLiteFloatArray*)&quant62_scale, (TfLiteIntArray*)&quant62_zero, 0 };
const TfArray<1, float> quant63_scale = { 1, { 0.076023578643798828, } };
const TfArray<1, int> quant63_zero = { 1, { -24 } };
const TfLiteAffineQuantization quant63 = { (TfLiteFloatArray*)&quant63_scale, (TfLiteIntArray*)&quant63_zero, 0 };
const TfArray<1, float> quant65_scale = { 1, { 0.020344715565443039, } };
const TfLiteAffineQuantization quant65 = { (TfLiteFloatArray*)&quant65_scale, (TfLiteIntArray*)&g0::quant0_zero, 0 };
const TfArray<1, float> quant66_scale = { 1, { 0.042800620198249817, } };
const TfArray<1, int> quant66_zero = { 1, { -14 } };
const TfLiteAffineQuantization quant66 = { (TfLiteFloatArray*)&quant66_scale, (TfLiteIntArray*)&quant66_zero, 0 };
const TfArray<1, float> quant67_scale = { 1, { 0.09625244140625, } };
const TfArray<1, int> quant67_zero = { 1, { -51 } };
const TfLiteAffineQuantization quant67 = { (TfLiteFloatArray*)&quant67_scale, (TfLiteIntArray*)&quant67_zero, 0 };
const TfArray<4, int> tensor_dimension69 = { 4, { 1,12,12,32 } };
const TfArray<1, float> quant69_scale = { 1, { 0.042367301881313324, } };
const TfLiteAffineQuantization quant69 = { (TfLiteFloatArray*)&quant69_scale, (TfLiteIntArray*)&g0::quant0_zero, 0 };
const TfArray<4, int> tensor_dimension70 = { 4, { 1,12,12,3 } };
const TfArray<1, float> quant70_scale = { 1, { 0.12424816936254501, } };
const TfArray<1, int> quant70_zero = { 1, { -21 } };
const TfLiteAffineQuantization quant70 = { (TfLiteFloatArray*)&quant70_scale, (TfLiteIntArray*)&quant70_zero, 0 };
const TfArray<1, float> quant71_scale = { 1, { 0.00390625, } };
const TfLiteAffineQuantization quant71 = { (TfLiteFloatArray*)&quant71_scale, (TfLiteIntArray*)&g0::quant0_zero, 0 };
const TfLiteConvParams opdata0 = { kTfLitePaddingSame, 2,2, kTfLiteActRelu6, 1,1 };
const TfArray<3, int> inputs0 = { 3, { 0,43,42 } };
const TfArray<1, int> outputs0 = { 1, { 44 } };
const TfLiteDepthwiseConvParams opdata1 = { kTfLitePaddingSame, 1,1, 1, kTfLiteActRelu6, 1,1 };
const TfArray<3, int> inputs1 = { 3, { 44,41,40 } };
const TfArray<1, int> outputs1 = { 1, { 45 } };
const TfLiteConvParams opdata2 = { kTfLitePaddingSame, 1,1, kTfLiteActNone, 1,1 };
const TfArray<3, int> inputs2 = { 3, { 45,39,38 } };
const TfArray<1, int> outputs2 = { 1, { 46 } };
const TfLiteAddParams opdata3 = { kTfLiteActNone };
const TfArray<2, int> inputs3 = { 2, { 44,46 } };
const TfArray<1, int> outputs3 = { 1, { 47 } };
const TfLiteConvParams opdata4 = { kTfLitePaddingSame, 1,1, kTfLiteActRelu6, 1,1 };
const TfArray<3, int> inputs4 = { 3, { 47,37,36 } };
const TfArray<1, int> outputs4 = { 1, { 48 } };
const TfArray<2, int> inputs5 = { 2, { 48,1 } };
const TfArray<1, int> outputs5 = { 1, { 49 } };
const TfLiteDepthwiseConvParams opdata6 = { kTfLitePaddingValid, 2,2, 1, kTfLiteActRelu6, 1,1 };
const TfArray<3, int> inputs6 = { 3, { 49,35,34 } };
const TfArray<1, int> outputs6 = { 1, { 50 } };
const TfLiteConvParams opdata7 = { kTfLitePaddingSame, 1,1, kTfLiteActNone, 1,1 };
const TfArray<3, int> inputs7 = { 3, { 50,33,32 } };
const TfArray<1, int> outputs7 = { 1, { 51 } };
const TfLiteConvParams opdata8 = { kTfLitePaddingSame, 1,1, kTfLiteActRelu6, 1,1 };
const TfArray<3, int> inputs8 = { 3, { 51,31,30 } };
const TfArray<1, int> outputs8 = { 1, { 52 } };
const TfLiteDepthwiseConvParams opdata9 = { kTfLitePaddingSame, 1,1, 1, kTfLiteActRelu6, 1,1 };
const TfArray<3, int> inputs9 = { 3, { 52,29,28 } };
const TfArray<1, int> outputs9 = { 1, { 53 } };
const TfLiteConvParams opdata10 = { kTfLitePaddingSame, 1,1, kTfLiteActNone, 1,1 };
const TfArray<3, int> inputs10 = { 3, { 53,27,26 } };
const TfArray<1, int> outputs10 = { 1, { 54 } };
const TfLiteAddParams opdata11 = { kTfLiteActNone };
const TfArray<2, int> inputs11 = { 2, { 51,54 } };
const TfArray<1, int> outputs11 = { 1, { 55 } };
const TfLiteConvParams opdata12 = { kTfLitePaddingSame, 1,1, kTfLiteActRelu6, 1,1 };
const TfArray<3, int> inputs12 = { 3, { 55,25,24 } };
const TfArray<1, int> outputs12 = { 1, { 56 } };
const TfArray<2, int> inputs13 = { 2, { 56,1 } };
const TfArray<1, int> outputs13 = { 1, { 57 } };
const TfLiteDepthwiseConvParams opdata14 = { kTfLitePaddingValid, 2,2, 1, kTfLiteActRelu6, 1,1 };
const TfArray<3, int> inputs14 = { 3, { 57,23,22 } };
const TfArray<1, int> outputs14 = { 1, { 58 } };
const TfLiteConvParams opdata15 = { kTfLitePaddingSame, 1,1, kTfLiteActNone, 1,1 };
const TfArray<3, int> inputs15 = { 3, { 58,21,20 } };
const TfArray<1, int> outputs15 = { 1, { 59 } };
const TfLiteConvParams opdata16 = { kTfLitePaddingSame, 1,1, kTfLiteActRelu6, 1,1 };
const TfArray<3, int> inputs16 = { 3, { 59,19,18 } };
const TfArray<1, int> outputs16 = { 1, { 60 } };
const TfLiteDepthwiseConvParams opdata17 = { kTfLitePaddingSame, 1,1, 1, kTfLiteActRelu6, 1,1 };
const TfArray<3, int> inputs17 = { 3, { 60,17,16 } };
const TfArray<1, int> outputs17 = { 1, { 61 } };
const TfLiteConvParams opdata18 = { kTfLitePaddingSame, 1,1, kTfLiteActNone, 1,1 };
const TfArray<3, int> inputs18 = { 3, { 61,15,14 } };
const TfArray<1, int> outputs18 = { 1, { 62 } };
const TfLiteAddParams opdata19 = { kTfLiteActNone };
const TfArray<2, int> inputs19 = { 2, { 59,62 } };
const TfArray<1, int> outputs19 = { 1, { 63 } };
const TfLiteConvParams opdata20 = { kTfLitePaddingSame, 1,1, kTfLiteActRelu6, 1,1 };
const TfArray<3, int> inputs20 = { 3, { 63,13,12 } };
const TfArray<1, int> outputs20 = { 1, { 64 } };
const TfLiteDepthwiseConvParams opdata21 = { kTfLitePaddingSame, 1,1, 1, kTfLiteActRelu6, 1,1 };
const TfArray<3, int> inputs21 = { 3, { 64,11,10 } };
const TfArray<1, int> outputs21 = { 1, { 65 } };
const TfLiteConvParams opdata22 = { kTfLitePaddingSame, 1,1, kTfLiteActNone, 1,1 };
const TfArray<3, int> inputs22 = { 3, { 65,9,8 } };
const TfArray<1, int> outputs22 = { 1, { 66 } };
const TfLiteAddParams opdata23 = { kTfLiteActNone };
const TfArray<2, int> inputs23 = { 2, { 63,66 } };
const TfArray<1, int> outputs23 = { 1, { 67 } };
const TfLiteConvParams opdata24 = { kTfLitePaddingSame, 1,1, kTfLiteActRelu6, 1,1 };
const TfArray<3, int> inputs24 = { 3, { 67,7,6 } };
const TfArray<1, int> outputs24 = { 1, { 68 } };
const TfLiteConvParams opdata25 = { kTfLitePaddingValid, 1,1, kTfLiteActRelu, 1,1 };
const TfArray<3, int> inputs25 = { 3, { 68,5,4 } };
const TfArray<1, int> outputs25 = { 1, { 69 } };
const TfLiteConvParams opdata26 = { kTfLitePaddingValid, 1,1, kTfLiteActNone, 1,1 };
const TfArray<3, int> inputs26 = { 3, { 69,3,2 } };
const TfArray<1, int> outputs26 = { 1, { 70 } };
const TfLiteSoftmaxParams opdata27 = { 1 };
const TfArray<1, int> inputs27 = { 1, { 70 } };
const TfArray<1, int> outputs27 = { 1, { 71 } };
};

TensorInfo_t tensorData[] = {
{ kTfLiteArenaRw, kTfLiteInt8, (int32_t*)(tensor_arena + 0), (TfLiteIntArray*)&g0::tensor_dimension0, 9216, {kTfLiteAffineQuantization, const_cast<void*>(static_cast<const void*>(&g0::quant0))}, },
{ kTfLiteMmapRo, kTfLiteInt32, (int32_t*)g0::tensor_data1, (TfLiteIntArray*)&g0::tensor_dimension1, 32, {kTfLiteNoQuantization, nullptr}, },
{ kTfLiteMmapRo, kTfLiteInt32, (int32_t*)g0::tensor_data2, (TfLiteIntArray*)&g0::tensor_dimension2, 12, {kTfLiteAffineQuantization, const_cast<void*>(static_cast<const void*>(&g0::quant2))}, },
{ kTfLiteMmapRo, kTfLiteInt8, (int32_t*)g0::tensor_data3, (TfLiteIntArray*)&g0::tensor_dimension3, 96, {kTfLiteAffineQuantization, const_cast<void*>(static_cast<const void*>(&g0::quant3))}, },
{ kTfLiteMmapRo, kTfLiteInt32, (int32_t*)g0::tensor_data4, (TfLiteIntArray*)&g0::tensor_dimension4, 128, {kTfLiteAffineQuantization, const_cast<void*>(static_cast<const void*>(&g0::quant4))}, },
{ kTfLiteMmapRo, kTfLiteInt8, (int32_t*)g0::tensor_data5, (TfLiteIntArray*)&g0::tensor_dimension5, 1536, {kTfLiteAffineQuantization, const_cast<void*>(static_cast<const void*>(&g0::quant5))}, },
{ kTfLiteMmapRo, kTfLiteInt32, (int32_t*)g0::tensor_data6, (TfLiteIntArray*)&g0::tensor_dimension6, 192, {kTfLiteAffineQuantization, const_cast<void*>(static_cast<const void*>(&g0::quant6))}, },
{ kTfLiteMmapRo, kTfLiteInt8, (int32_t*)g0::tensor_data7, (TfLiteIntArray*)&g0::tensor_dimension7, 384, {kTfLiteAffineQuantization, const_cast<void*>(static_cast<const void*>(&g0::quant7))}, },
{ kTfLiteMmapRo, kTfLiteInt32, (int32_t*)g0::tensor_data8, (TfLiteIntArray*)&g0::tensor_dimension8, 32, {kTfLiteAffineQuantization, const_cast<void*>(static_cast<const void*>(&g0::quant8))}, },
{ kTfLiteMmapRo, kTfLiteInt8, (int32_t*)g0::tensor_data9, (TfLiteIntArray*)&g0::tensor_dimension9, 384, {kTfLiteAffineQuantization, const_cast<void*>(static_cast<const void*>(&g0::quant9))}, },
{ kTfLiteMmapRo, kTfLiteInt32, (int32_t*)g0::tensor_data10, (TfLiteIntArray*)&g0::tensor_dimension6, 192, {kTfLiteAffineQuantization, const_cast<void*>(static_cast<const void*>(&g0::quant10))}, },
{ kTfLiteMmapRo, kTfLiteInt8, (int32_t*)g0::tensor_data11, (TfLiteIntArray*)&g0::tensor_dimension11, 432, {kTfLiteAffineQuantization, const_cast<void*>(static_cast<const void*>(&g0::quant11))}, },
